digraph Tree {
node [shape=box, style="filled, rounded", color="black", fontname=helvetica] ;
edge [fontname=helvetica] ;
0 [label=<YearBuilt &le; 84.5<br/>gini = 0.884<br/>samples = 840<br/>value = [4, 12, 56, 115, 174, 117, 107, 58, 57, 42, 23, 22<br/>16, 11, 7, 4, 4, 2, 1, 1, 2, 1, 4]<br/>class = 100000-125000>, fillcolor="#98e53914"] ;
1 [label=<LotFrontage &le; 39.5<br/>gini = 0.801<br/>samples = 481<br/>value = [4, 12, 56, 113, 151, 78, 27, 13, 13, 5, 3, 2, 3<br/>1, 0, 0, 0, 0, 0, 0, 0, 0, 0]<br/>class = 100000-125000>, fillcolor="#98e5391a"] ;
0 -> 1 [labeldistance=2.5, labelangle=45, headlabel="True"] ;
2 [label=<MSSubClass &le; 1.5<br/>gini = 0.766<br/>samples = 247<br/>value = [4, 11, 46, 82, 70, 18, 9, 3, 0, 3, 1, 0, 0, 0<br/>0, 0, 0, 0, 0, 0, 0, 0, 0]<br/>class = 75000-100000>, fillcolor="#c5e53911"] ;
1 -> 2 ;
3 [label=<CentralAir &le; 0.5<br/>gini = 0.698<br/>samples = 81<br/>value = [2, 9, 17, 39, 9, 2, 1, 1, 0, 0, 1, 0, 0, 0<br/>0, 0, 0, 0, 0, 0, 0, 0, 0]<br/>class = 75000-100000>, fillcolor="#c5e53958"] ;
2 -> 3 ;
4 [label=<MSZoning &le; 1.5<br/>gini = 0.693<br/>samples = 15<br/>value = [2, 6, 5, 2, 0, 0, 0, 0, 0, 0, 0, 0, 0, 0, 0<br/>0, 0, 0, 0, 0, 0, 0, 0]<br/>class = 25000-50000>, fillcolor="#e5ac391a"] ;
3 -> 4 ;
5 [label=<YearBuilt &le; 51.5<br/>gini = 0.444<br/>samples = 3<br/>value = [2, 1, 0, 0, 0, 0, 0, 0, 0, 0, 0, 0, 0, 0, 0<br/>0, 0, 0, 0, 0, 0, 0, 0]<br/>class = 0-25000>, fillcolor="#e581397f"] ;
4 -> 5 ;
6 [label=<gini = 0.0<br/>samples = 2<br/>value = [2, 0, 0, 0, 0, 0, 0, 0, 0, 0, 0, 0, 0, 0, 0<br/>0, 0, 0, 0, 0, 0, 0, 0]<br/>class = 0-25000>, fillcolor="#e58139ff"] ;
5 -> 6 ;
7 [label=<gini = 0.0<br/>samples = 1<br/>value = [0, 1, 0, 0, 0, 0, 0, 0, 0, 0, 0, 0, 0, 0, 0<br/>0, 0, 0, 0, 0, 0, 0, 0]<br/>class = 25000-50000>, fillcolor="#e5ac39ff"] ;
5 -> 7 ;
8 [label=<OverallQual &le; 3.5<br/>gini = 0.625<br/>samples = 12<br/>value = [0, 5, 5, 2, 0, 0, 0, 0, 0, 0, 0, 0, 0, 0, 0<br/>0, 0, 0, 0, 0, 0, 0, 0]<br/>class = 25000-50000>, fillcolor="#e5ac3900"] ;
4 -> 8 ;
9 [label=<LotArea &le; 344.5<br/>gini = 0.5<br/>samples = 6<br/>value = [0, 4, 1, 1, 0, 0, 0, 0, 0, 0, 0, 0, 0, 0, 0<br/>0, 0, 0, 0, 0, 0, 0, 0]<br/>class = 25000-50000>, fillcolor="#e5ac3999"] ;
8 -> 9 ;
10 [label=<gini = 0.0<br/>samples = 4<br/>value = [0, 4, 0, 0, 0, 0, 0, 0, 0, 0, 0, 0, 0, 0, 0<br/>0, 0, 0, 0, 0, 0, 0, 0]<br/>class = 25000-50000>, fillcolor="#e5ac39ff"] ;
9 -> 10 ;
11 [label=<OverallQual &le; 2.5<br/>gini = 0.5<br/>samples = 2<br/>value = [0, 0, 1, 1, 0, 0, 0, 0, 0, 0, 0, 0, 0, 0, 0<br/>0, 0, 0, 0, 0, 0, 0, 0]<br/>class = 50000-75000>, fillcolor="#e5da3900"] ;
9 -> 11 ;
12 [label=<gini = 0.0<br/>samples = 1<br/>value = [0, 0, 1, 0, 0, 0, 0, 0, 0, 0, 0, 0, 0, 0, 0<br/>0, 0, 0, 0, 0, 0, 0, 0]<br/>class = 50000-75000>, fillcolor="#e5da39ff"] ;
11 -> 12 ;
13 [label=<gini = 0.0<br/>samples = 1<br/>value = [0, 0, 0, 1, 0, 0, 0, 0, 0, 0, 0, 0, 0, 0, 0<br/>0, 0, 0, 0, 0, 0, 0, 0]<br/>class = 75000-100000>, fillcolor="#c5e539ff"] ;
11 -> 13 ;
14 [label=<LotFrontage &le; 12.0<br/>gini = 0.5<br/>samples = 6<br/>value = [0, 1, 4, 1, 0, 0, 0, 0, 0, 0, 0, 0, 0, 0, 0<br/>0, 0, 0, 0, 0, 0, 0, 0]<br/>class = 50000-75000>, fillcolor="#e5da3999"] ;
8 -> 14 ;
15 [label=<gini = 0.0<br/>samples = 1<br/>value = [0, 1, 0, 0, 0, 0, 0, 0, 0, 0, 0, 0, 0, 0, 0<br/>0, 0, 0, 0, 0, 0, 0, 0]<br/>class = 25000-50000>, fillcolor="#e5ac39ff"] ;
14 -> 15 ;
16 [label=<Neighborhood &le; 5.0<br/>gini = 0.32<br/>samples = 5<br/>value = [0, 0, 4, 1, 0, 0, 0, 0, 0, 0, 0, 0, 0, 0, 0<br/>0, 0, 0, 0, 0, 0, 0, 0]<br/>class = 50000-75000>, fillcolor="#e5da39bf"] ;
14 -> 16 ;
17 [label=<YearBuilt &le; 29.5<br/>gini = 0.5<br/>samples = 2<br/>value = [0, 0, 1, 1, 0, 0, 0, 0, 0, 0, 0, 0, 0, 0, 0<br/>0, 0, 0, 0, 0, 0, 0, 0]<br/>class = 50000-75000>, fillcolor="#e5da3900"] ;
16 -> 17 ;
18 [label=<gini = 0.0<br/>samples = 1<br/>value = [0, 0, 1, 0, 0, 0, 0, 0, 0, 0, 0, 0, 0, 0, 0<br/>0, 0, 0, 0, 0, 0, 0, 0]<br/>class = 50000-75000>, fillcolor="#e5da39ff"] ;
17 -> 18 ;
19 [label=<gini = 0.0<br/>samples = 1<br/>value = [0, 0, 0, 1, 0, 0, 0, 0, 0, 0, 0, 0, 0, 0, 0<br/>0, 0, 0, 0, 0, 0, 0, 0]<br/>class = 75000-100000>, fillcolor="#c5e539ff"] ;
17 -> 19 ;
20 [label=<gini = 0.0<br/>samples = 3<br/>value = [0, 0, 3, 0, 0, 0, 0, 0, 0, 0, 0, 0, 0, 0, 0<br/>0, 0, 0, 0, 0, 0, 0, 0]<br/>class = 50000-75000>, fillcolor="#e5da39ff"] ;
16 -> 20 ;
21 [label=<LotArea &le; 136.5<br/>gini = 0.63<br/>samples = 66<br/>value = [0, 3, 12, 37, 9, 2, 1, 1, 0, 0, 1, 0, 0, 0<br/>0, 0, 0, 0, 0, 0, 0, 0, 0]<br/>class = 75000-100000>, fillcolor="#c5e53976"] ;
3 -> 21 ;
22 [label=<LotFrontage &le; 14.5<br/>gini = 0.486<br/>samples = 12<br/>value = [0, 0, 8, 3, 1, 0, 0, 0, 0, 0, 0, 0, 0, 0, 0<br/>0, 0, 0, 0, 0, 0, 0, 0]<br/>class = 50000-75000>, fillcolor="#e5da398e"] ;
21 -> 22 ;
23 [label=<gini = 0.0<br/>samples = 2<br/>value = [0, 0, 0, 2, 0, 0, 0, 0, 0, 0, 0, 0, 0, 0, 0<br/>0, 0, 0, 0, 0, 0, 0, 0]<br/>class = 75000-100000>, fillcolor="#c5e539ff"] ;
22 -> 23 ;
24 [label=<YearBuilt &le; 47.5<br/>gini = 0.34<br/>samples = 10<br/>value = [0, 0, 8, 1, 1, 0, 0, 0, 0, 0, 0, 0, 0, 0, 0<br/>0, 0, 0, 0, 0, 0, 0, 0]<br/>class = 50000-75000>, fillcolor="#e5da39c6"] ;
22 -> 24 ;
25 [label=<gini = 0.0<br/>samples = 8<br/>value = [0, 0, 8, 0, 0, 0, 0, 0, 0, 0, 0, 0, 0, 0, 0<br/>0, 0, 0, 0, 0, 0, 0, 0]<br/>class = 50000-75000>, fillcolor="#e5da39ff"] ;
24 -> 25 ;
26 [label=<OverallQual &le; 3.0<br/>gini = 0.5<br/>samples = 2<br/>value = [0, 0, 0, 1, 1, 0, 0, 0, 0, 0, 0, 0, 0, 0, 0<br/>0, 0, 0, 0, 0, 0, 0, 0]<br/>class = 75000-100000>, fillcolor="#c5e53900"] ;
24 -> 26 ;
27 [label=<gini = 0.0<br/>samples = 1<br/>value = [0, 0, 0, 0, 1, 0, 0, 0, 0, 0, 0, 0, 0, 0, 0<br/>0, 0, 0, 0, 0, 0, 0, 0]<br/>class = 100000-125000>, fillcolor="#98e539ff"] ;
26 -> 27 ;
28 [label=<gini = 0.0<br/>samples = 1<br/>value = [0, 0, 0, 1, 0, 0, 0, 0, 0, 0, 0, 0, 0, 0, 0<br/>0, 0, 0, 0, 0, 0, 0, 0]<br/>class = 75000-100000>, fillcolor="#c5e539ff"] ;
26 -> 28 ;
29 [label=<LotFrontage &le; 35.0<br/>gini = 0.571<br/>samples = 54<br/>value = [0, 3, 4, 34, 8, 2, 1, 1, 0, 0, 1, 0, 0, 0<br/>0, 0, 0, 0, 0, 0, 0, 0, 0]<br/>class = 75000-100000>, fillcolor="#c5e53990"] ;
21 -> 29 ;
30 [label=<LotArea &le; 610.0<br/>gini = 0.452<br/>samples = 41<br/>value = [0, 2, 3, 30, 2, 1, 1, 1, 0, 0, 1, 0, 0, 0<br/>0, 0, 0, 0, 0, 0, 0, 0, 0]<br/>class = 75000-100000>, fillcolor="#c5e539b5"] ;
29 -> 30 ;
31 [label=<YearBuilt &le; 25.5<br/>gini = 0.266<br/>samples = 34<br/>value = [0, 1, 2, 29, 1, 1, 0, 0, 0, 0, 0, 0, 0, 0<br/>0, 0, 0, 0, 0, 0, 0, 0, 0]<br/>class = 75000-100000>, fillcolor="#c5e539d7"] ;
30 -> 31 ;
32 [label=<MSZoning &le; 3.5<br/>gini = 0.5<br/>samples = 2<br/>value = [0, 1, 1, 0, 0, 0, 0, 0, 0, 0, 0, 0, 0, 0, 0<br/>0, 0, 0, 0, 0, 0, 0, 0]<br/>class = 25000-50000>, fillcolor="#e5ac3900"] ;
31 -> 32 ;
33 [label=<gini = 0.0<br/>samples = 1<br/>value = [0, 0, 1, 0, 0, 0, 0, 0, 0, 0, 0, 0, 0, 0, 0<br/>0, 0, 0, 0, 0, 0, 0, 0]<br/>class = 50000-75000>, fillcolor="#e5da39ff"] ;
32 -> 33 ;
34 [label=<gini = 0.0<br/>samples = 1<br/>value = [0, 1, 0, 0, 0, 0, 0, 0, 0, 0, 0, 0, 0, 0, 0<br/>0, 0, 0, 0, 0, 0, 0, 0]<br/>class = 25000-50000>, fillcolor="#e5ac39ff"] ;
32 -> 34 ;
35 [label=<LotFrontage &le; 20.5<br/>gini = 0.176<br/>samples = 32<br/>value = [0, 0, 1, 29, 1, 1, 0, 0, 0, 0, 0, 0, 0, 0<br/>0, 0, 0, 0, 0, 0, 0, 0, 0]<br/>class = 75000-100000>, fillcolor="#c5e539e6"] ;
31 -> 35 ;
36 [label=<gini = 0.0<br/>samples = 1<br/>value = [0, 0, 0, 0, 1, 0, 0, 0, 0, 0, 0, 0, 0, 0, 0<br/>0, 0, 0, 0, 0, 0, 0, 0]<br/>class = 100000-125000>, fillcolor="#98e539ff"] ;
35 -> 36 ;
37 [label=<OverallCond &le; 2.5<br/>gini = 0.123<br/>samples = 31<br/>value = [0, 0, 1, 29, 0, 1, 0, 0, 0, 0, 0, 0, 0, 0<br/>0, 0, 0, 0, 0, 0, 0, 0, 0]<br/>class = 75000-100000>, fillcolor="#c5e539ee"] ;
35 -> 37 ;
38 [label=<gini = 0.0<br/>samples = 1<br/>value = [0, 0, 1, 0, 0, 0, 0, 0, 0, 0, 0, 0, 0, 0, 0<br/>0, 0, 0, 0, 0, 0, 0, 0]<br/>class = 50000-75000>, fillcolor="#e5da39ff"] ;
37 -> 38 ;
39 [label=<LotFrontage &le; 31.5<br/>gini = 0.064<br/>samples = 30<br/>value = [0, 0, 0, 29, 0, 1, 0, 0, 0, 0, 0, 0, 0, 0<br/>0, 0, 0, 0, 0, 0, 0, 0, 0]<br/>class = 75000-100000>, fillcolor="#c5e539f6"] ;
37 -> 39 ;
40 [label=<gini = 0.0<br/>samples = 27<br/>value = [0, 0, 0, 27, 0, 0, 0, 0, 0, 0, 0, 0, 0, 0<br/>0, 0, 0, 0, 0, 0, 0, 0, 0]<br/>class = 75000-100000>, fillcolor="#c5e539ff"] ;
39 -> 40 ;
41 [label=<OverallCond &le; 4.5<br/>gini = 0.444<br/>samples = 3<br/>value = [0, 0, 0, 2, 0, 1, 0, 0, 0, 0, 0, 0, 0, 0, 0<br/>0, 0, 0, 0, 0, 0, 0, 0]<br/>class = 75000-100000>, fillcolor="#c5e5397f"] ;
39 -> 41 ;
42 [label=<gini = 0.0<br/>samples = 2<br/>value = [0, 0, 0, 2, 0, 0, 0, 0, 0, 0, 0, 0, 0, 0, 0<br/>0, 0, 0, 0, 0, 0, 0, 0]<br/>class = 75000-100000>, fillcolor="#c5e539ff"] ;
41 -> 42 ;
43 [label=<gini = 0.0<br/>samples = 1<br/>value = [0, 0, 0, 0, 0, 1, 0, 0, 0, 0, 0, 0, 0, 0, 0<br/>0, 0, 0, 0, 0, 0, 0, 0]<br/>class = 125000-150000>, fillcolor="#6ae539ff"] ;
41 -> 43 ;
44 [label=<Neighborhood &le; 4.5<br/>gini = 0.857<br/>samples = 7<br/>value = [0, 1, 1, 1, 1, 0, 1, 1, 0, 0, 1, 0, 0, 0, 0<br/>0, 0, 0, 0, 0, 0, 0, 0]<br/>class = 25000-50000>, fillcolor="#e5ac3900"] ;
30 -> 44 ;
45 [label=<gini = 0.0<br/>samples = 1<br/>value = [0, 0, 0, 0, 0, 0, 0, 0, 0, 0, 1, 0, 0, 0, 0<br/>0, 0, 0, 0, 0, 0, 0, 0]<br/>class = 250000-275000>, fillcolor="#39e2e5ff"] ;
44 -> 45 ;
46 [label=<OverallCond &le; 3.0<br/>gini = 0.833<br/>samples = 6<br/>value = [0, 1, 1, 1, 1, 0, 1, 1, 0, 0, 0, 0, 0, 0, 0<br/>0, 0, 0, 0, 0, 0, 0, 0]<br/>class = 25000-50000>, fillcolor="#e5ac3900"] ;
44 -> 46 ;
47 [label=<gini = 0.0<br/>samples = 1<br/>value = [0, 0, 0, 0, 0, 0, 1, 0, 0, 0, 0, 0, 0, 0, 0<br/>0, 0, 0, 0, 0, 0, 0, 0]<br/>class = 150000-175000>, fillcolor="#3fe539ff"] ;
46 -> 47 ;
48 [label=<LotArea &le; 665.5<br/>gini = 0.8<br/>samples = 5<br/>value = [0, 1, 1, 1, 1, 0, 0, 1, 0, 0, 0, 0, 0, 0, 0<br/>0, 0, 0, 0, 0, 0, 0, 0]<br/>class = 25000-50000>, fillcolor="#e5ac3900"] ;
46 -> 48 ;
49 [label=<gini = 0.0<br/>samples = 1<br/>value = [0, 1, 0, 0, 0, 0, 0, 0, 0, 0, 0, 0, 0, 0, 0<br/>0, 0, 0, 0, 0, 0, 0, 0]<br/>class = 25000-50000>, fillcolor="#e5ac39ff"] ;
48 -> 49 ;
50 [label=<OverallQual &le; 3.5<br/>gini = 0.75<br/>samples = 4<br/>value = [0, 0, 1, 1, 1, 0, 0, 1, 0, 0, 0, 0, 0, 0, 0<br/>0, 0, 0, 0, 0, 0, 0, 0]<br/>class = 50000-75000>, fillcolor="#e5da3900"] ;
48 -> 50 ;
51 [label=<gini = 0.0<br/>samples = 1<br/>value = [0, 0, 1, 0, 0, 0, 0, 0, 0, 0, 0, 0, 0, 0, 0<br/>0, 0, 0, 0, 0, 0, 0, 0]<br/>class = 50000-75000>, fillcolor="#e5da39ff"] ;
50 -> 51 ;
52 [label=<MSSubClass &le; 0.5<br/>gini = 0.667<br/>samples = 3<br/>value = [0, 0, 0, 1, 1, 0, 0, 1, 0, 0, 0, 0, 0, 0, 0<br/>0, 0, 0, 0, 0, 0, 0, 0]<br/>class = 75000-100000>, fillcolor="#c5e53900"] ;
50 -> 52 ;
53 [label=<LotArea &le; 970.5<br/>gini = 0.5<br/>samples = 2<br/>value = [0, 0, 0, 0, 1, 0, 0, 1, 0, 0, 0, 0, 0, 0, 0<br/>0, 0, 0, 0, 0, 0, 0, 0]<br/>class = 100000-125000>, fillcolor="#98e53900"] ;
52 -> 53 ;
54 [label=<gini = 0.0<br/>samples = 1<br/>value = [0, 0, 0, 0, 1, 0, 0, 0, 0, 0, 0, 0, 0, 0, 0<br/>0, 0, 0, 0, 0, 0, 0, 0]<br/>class = 100000-125000>, fillcolor="#98e539ff"] ;
53 -> 54 ;
55 [label=<gini = 0.0<br/>samples = 1<br/>value = [0, 0, 0, 0, 0, 0, 0, 1, 0, 0, 0, 0, 0, 0, 0<br/>0, 0, 0, 0, 0, 0, 0, 0]<br/>class = 175000-200000>, fillcolor="#39e561ff"] ;
53 -> 55 ;
56 [label=<gini = 0.0<br/>samples = 1<br/>value = [0, 0, 0, 1, 0, 0, 0, 0, 0, 0, 0, 0, 0, 0, 0<br/>0, 0, 0, 0, 0, 0, 0, 0]<br/>class = 75000-100000>, fillcolor="#c5e539ff"] ;
52 -> 56 ;
57 [label=<OverallCond &le; 3.5<br/>gini = 0.675<br/>samples = 13<br/>value = [0, 1, 1, 4, 6, 1, 0, 0, 0, 0, 0, 0, 0, 0, 0<br/>0, 0, 0, 0, 0, 0, 0, 0]<br/>class = 100000-125000>, fillcolor="#98e53939"] ;
29 -> 57 ;
58 [label=<LotFrontage &le; 38.0<br/>gini = 0.444<br/>samples = 3<br/>value = [0, 1, 0, 2, 0, 0, 0, 0, 0, 0, 0, 0, 0, 0, 0<br/>0, 0, 0, 0, 0, 0, 0, 0]<br/>class = 75000-100000>, fillcolor="#c5e5397f"] ;
57 -> 58 ;
59 [label=<gini = 0.0<br/>samples = 2<br/>value = [0, 0, 0, 2, 0, 0, 0, 0, 0, 0, 0, 0, 0, 0, 0<br/>0, 0, 0, 0, 0, 0, 0, 0]<br/>class = 75000-100000>, fillcolor="#c5e539ff"] ;
58 -> 59 ;
60 [label=<gini = 0.0<br/>samples = 1<br/>value = [0, 1, 0, 0, 0, 0, 0, 0, 0, 0, 0, 0, 0, 0, 0<br/>0, 0, 0, 0, 0, 0, 0, 0]<br/>class = 25000-50000>, fillcolor="#e5ac39ff"] ;
58 -> 60 ;
61 [label=<YearBuilt &le; 46.0<br/>gini = 0.58<br/>samples = 10<br/>value = [0, 0, 1, 2, 6, 1, 0, 0, 0, 0, 0, 0, 0, 0, 0<br/>0, 0, 0, 0, 0, 0, 0, 0]<br/>class = 100000-125000>, fillcolor="#98e5397f"] ;
57 -> 61 ;
62 [label=<LotArea &le; 381.0<br/>gini = 0.5<br/>samples = 2<br/>value = [0, 0, 1, 1, 0, 0, 0, 0, 0, 0, 0, 0, 0, 0, 0<br/>0, 0, 0, 0, 0, 0, 0, 0]<br/>class = 50000-75000>, fillcolor="#e5da3900"] ;
61 -> 62 ;
63 [label=<gini = 0.0<br/>samples = 1<br/>value = [0, 0, 1, 0, 0, 0, 0, 0, 0, 0, 0, 0, 0, 0, 0<br/>0, 0, 0, 0, 0, 0, 0, 0]<br/>class = 50000-75000>, fillcolor="#e5da39ff"] ;
62 -> 63 ;
64 [label=<gini = 0.0<br/>samples = 1<br/>value = [0, 0, 0, 1, 0, 0, 0, 0, 0, 0, 0, 0, 0, 0, 0<br/>0, 0, 0, 0, 0, 0, 0, 0]<br/>class = 75000-100000>, fillcolor="#c5e539ff"] ;
62 -> 64 ;
65 [label=<OverallQual &le; 4.5<br/>gini = 0.406<br/>samples = 8<br/>value = [0, 0, 0, 1, 6, 1, 0, 0, 0, 0, 0, 0, 0, 0, 0<br/>0, 0, 0, 0, 0, 0, 0, 0]<br/>class = 100000-125000>, fillcolor="#98e539b6"] ;
61 -> 65 ;
66 [label=<ExterCond &le; 3.0<br/>gini = 0.245<br/>samples = 7<br/>value = [0, 0, 0, 1, 6, 0, 0, 0, 0, 0, 0, 0, 0, 0, 0<br/>0, 0, 0, 0, 0, 0, 0, 0]<br/>class = 100000-125000>, fillcolor="#98e539d4"] ;
65 -> 66 ;
67 [label=<gini = 0.0<br/>samples = 1<br/>value = [0, 0, 0, 1, 0, 0, 0, 0, 0, 0, 0, 0, 0, 0, 0<br/>0, 0, 0, 0, 0, 0, 0, 0]<br/>class = 75000-100000>, fillcolor="#c5e539ff"] ;
66 -> 67 ;
68 [label=<gini = 0.0<br/>samples = 6<br/>value = [0, 0, 0, 0, 6, 0, 0, 0, 0, 0, 0, 0, 0, 0, 0<br/>0, 0, 0, 0, 0, 0, 0, 0]<br/>class = 100000-125000>, fillcolor="#98e539ff"] ;
66 -> 68 ;
69 [label=<gini = 0.0<br/>samples = 1<br/>value = [0, 0, 0, 0, 0, 1, 0, 0, 0, 0, 0, 0, 0, 0, 0<br/>0, 0, 0, 0, 0, 0, 0, 0]<br/>class = 125000-150000>, fillcolor="#6ae539ff"] ;
65 -> 69 ;
70 [label=<LotFrontage &le; 0.5<br/>gini = 0.755<br/>samples = 166<br/>value = [2, 2, 29, 43, 61, 16, 8, 2, 0, 3, 0, 0, 0, 0<br/>0, 0, 0, 0, 0, 0, 0, 0, 0]<br/>class = 100000-125000>, fillcolor="#98e53925"] ;
2 -> 70 ;
71 [label=<OverallQual &le; 4.0<br/>gini = 0.426<br/>samples = 13<br/>value = [0, 0, 9, 4, 0, 0, 0, 0, 0, 0, 0, 0, 0, 0, 0<br/>0, 0, 0, 0, 0, 0, 0, 0]<br/>class = 50000-75000>, fillcolor="#e5da398e"] ;
70 -> 71 ;
72 [label=<gini = 0.0<br/>samples = 6<br/>value = [0, 0, 6, 0, 0, 0, 0, 0, 0, 0, 0, 0, 0, 0, 0<br/>0, 0, 0, 0, 0, 0, 0, 0]<br/>class = 50000-75000>, fillcolor="#e5da39ff"] ;
71 -> 72 ;
73 [label=<YearBuilt &le; 72.5<br/>gini = 0.49<br/>samples = 7<br/>value = [0, 0, 3, 4, 0, 0, 0, 0, 0, 0, 0, 0, 0, 0, 0<br/>0, 0, 0, 0, 0, 0, 0, 0]<br/>class = 75000-100000>, fillcolor="#c5e53940"] ;
71 -> 73 ;
74 [label=<gini = 0.0<br/>samples = 2<br/>value = [0, 0, 2, 0, 0, 0, 0, 0, 0, 0, 0, 0, 0, 0, 0<br/>0, 0, 0, 0, 0, 0, 0, 0]<br/>class = 50000-75000>, fillcolor="#e5da39ff"] ;
73 -> 74 ;
75 [label=<YearBuilt &le; 73.5<br/>gini = 0.32<br/>samples = 5<br/>value = [0, 0, 1, 4, 0, 0, 0, 0, 0, 0, 0, 0, 0, 0, 0<br/>0, 0, 0, 0, 0, 0, 0, 0]<br/>class = 75000-100000>, fillcolor="#c5e539bf"] ;
73 -> 75 ;
76 [label=<OverallCond &le; 4.0<br/>gini = 0.444<br/>samples = 3<br/>value = [0, 0, 1, 2, 0, 0, 0, 0, 0, 0, 0, 0, 0, 0, 0<br/>0, 0, 0, 0, 0, 0, 0, 0]<br/>class = 75000-100000>, fillcolor="#c5e5397f"] ;
75 -> 76 ;
77 [label=<gini = 0.0<br/>samples = 1<br/>value = [0, 0, 1, 0, 0, 0, 0, 0, 0, 0, 0, 0, 0, 0, 0<br/>0, 0, 0, 0, 0, 0, 0, 0]<br/>class = 50000-75000>, fillcolor="#e5da39ff"] ;
76 -> 77 ;
78 [label=<gini = 0.0<br/>samples = 2<br/>value = [0, 0, 0, 2, 0, 0, 0, 0, 0, 0, 0, 0, 0, 0, 0<br/>0, 0, 0, 0, 0, 0, 0, 0]<br/>class = 75000-100000>, fillcolor="#c5e539ff"] ;
76 -> 78 ;
79 [label=<gini = 0.0<br/>samples = 2<br/>value = [0, 0, 0, 2, 0, 0, 0, 0, 0, 0, 0, 0, 0, 0, 0<br/>0, 0, 0, 0, 0, 0, 0, 0]<br/>class = 75000-100000>, fillcolor="#c5e539ff"] ;
75 -> 79 ;
80 [label=<OverallCond &le; 1.5<br/>gini = 0.744<br/>samples = 153<br/>value = [2, 2, 20, 39, 61, 16, 8, 2, 0, 3, 0, 0, 0, 0<br/>0, 0, 0, 0, 0, 0, 0, 0, 0]<br/>class = 100000-125000>, fillcolor="#98e53931"] ;
70 -> 80 ;
81 [label=<gini = 0.0<br/>samples = 5<br/>value = [0, 0, 5, 0, 0, 0, 0, 0, 0, 0, 0, 0, 0, 0, 0<br/>0, 0, 0, 0, 0, 0, 0, 0]<br/>class = 50000-75000>, fillcolor="#e5da39ff"] ;
80 -> 81 ;
82 [label=<OverallQual &le; 3.5<br/>gini = 0.735<br/>samples = 148<br/>value = [2, 2, 15, 39, 61, 16, 8, 2, 0, 3, 0, 0, 0, 0<br/>0, 0, 0, 0, 0, 0, 0, 0, 0]<br/>class = 100000-125000>, fillcolor="#98e53933"] ;
80 -> 82 ;
83 [label=<Neighborhood &le; 14.5<br/>gini = 0.639<br/>samples = 24<br/>value = [2, 1, 3, 13, 5, 0, 0, 0, 0, 0, 0, 0, 0, 0<br/>0, 0, 0, 0, 0, 0, 0, 0, 0]<br/>class = 75000-100000>, fillcolor="#c5e5396b"] ;
82 -> 83 ;
84 [label=<CentralAir &le; 0.5<br/>gini = 0.735<br/>samples = 14<br/>value = [1, 1, 3, 4, 5, 0, 0, 0, 0, 0, 0, 0, 0, 0, 0<br/>0, 0, 0, 0, 0, 0, 0, 0]<br/>class = 100000-125000>, fillcolor="#98e5391a"] ;
83 -> 84 ;
85 [label=<YearBuilt &le; 34.0<br/>gini = 0.611<br/>samples = 6<br/>value = [1, 0, 3, 0, 2, 0, 0, 0, 0, 0, 0, 0, 0, 0, 0<br/>0, 0, 0, 0, 0, 0, 0, 0]<br/>class = 50000-75000>, fillcolor="#e5da3940"] ;
84 -> 85 ;
86 [label=<gini = 0.0<br/>samples = 1<br/>value = [1, 0, 0, 0, 0, 0, 0, 0, 0, 0, 0, 0, 0, 0, 0<br/>0, 0, 0, 0, 0, 0, 0, 0]<br/>class = 0-25000>, fillcolor="#e58139ff"] ;
85 -> 86 ;
87 [label=<LotArea &le; 436.0<br/>gini = 0.48<br/>samples = 5<br/>value = [0, 0, 3, 0, 2, 0, 0, 0, 0, 0, 0, 0, 0, 0, 0<br/>0, 0, 0, 0, 0, 0, 0, 0]<br/>class = 50000-75000>, fillcolor="#e5da3955"] ;
85 -> 87 ;
88 [label=<gini = 0.0<br/>samples = 2<br/>value = [0, 0, 2, 0, 0, 0, 0, 0, 0, 0, 0, 0, 0, 0, 0<br/>0, 0, 0, 0, 0, 0, 0, 0]<br/>class = 50000-75000>, fillcolor="#e5da39ff"] ;
87 -> 88 ;
89 [label=<YearBuilt &le; 47.0<br/>gini = 0.444<br/>samples = 3<br/>value = [0, 0, 1, 0, 2, 0, 0, 0, 0, 0, 0, 0, 0, 0, 0<br/>0, 0, 0, 0, 0, 0, 0, 0]<br/>class = 100000-125000>, fillcolor="#98e5397f"] ;
87 -> 89 ;
90 [label=<gini = 0.0<br/>samples = 1<br/>value = [0, 0, 1, 0, 0, 0, 0, 0, 0, 0, 0, 0, 0, 0, 0<br/>0, 0, 0, 0, 0, 0, 0, 0]<br/>class = 50000-75000>, fillcolor="#e5da39ff"] ;
89 -> 90 ;
91 [label=<gini = 0.0<br/>samples = 2<br/>value = [0, 0, 0, 0, 2, 0, 0, 0, 0, 0, 0, 0, 0, 0, 0<br/>0, 0, 0, 0, 0, 0, 0, 0]<br/>class = 100000-125000>, fillcolor="#98e539ff"] ;
89 -> 91 ;
92 [label=<LotArea &le; 326.5<br/>gini = 0.594<br/>samples = 8<br/>value = [0, 1, 0, 4, 3, 0, 0, 0, 0, 0, 0, 0, 0, 0, 0<br/>0, 0, 0, 0, 0, 0, 0, 0]<br/>class = 75000-100000>, fillcolor="#c5e53933"] ;
84 -> 92 ;
93 [label=<LotArea &le; 101.5<br/>gini = 0.56<br/>samples = 5<br/>value = [0, 1, 0, 1, 3, 0, 0, 0, 0, 0, 0, 0, 0, 0, 0<br/>0, 0, 0, 0, 0, 0, 0, 0]<br/>class = 100000-125000>, fillcolor="#98e5397f"] ;
92 -> 93 ;
94 [label=<gini = 0.0<br/>samples = 1<br/>value = [0, 0, 0, 1, 0, 0, 0, 0, 0, 0, 0, 0, 0, 0, 0<br/>0, 0, 0, 0, 0, 0, 0, 0]<br/>class = 75000-100000>, fillcolor="#c5e539ff"] ;
93 -> 94 ;
95 [label=<OverallCond &le; 3.0<br/>gini = 0.375<br/>samples = 4<br/>value = [0, 1, 0, 0, 3, 0, 0, 0, 0, 0, 0, 0, 0, 0, 0<br/>0, 0, 0, 0, 0, 0, 0, 0]<br/>class = 100000-125000>, fillcolor="#98e539aa"] ;
93 -> 95 ;
96 [label=<gini = 0.0<br/>samples = 1<br/>value = [0, 1, 0, 0, 0, 0, 0, 0, 0, 0, 0, 0, 0, 0, 0<br/>0, 0, 0, 0, 0, 0, 0, 0]<br/>class = 25000-50000>, fillcolor="#e5ac39ff"] ;
95 -> 96 ;
97 [label=<gini = 0.0<br/>samples = 3<br/>value = [0, 0, 0, 0, 3, 0, 0, 0, 0, 0, 0, 0, 0, 0, 0<br/>0, 0, 0, 0, 0, 0, 0, 0]<br/>class = 100000-125000>, fillcolor="#98e539ff"] ;
95 -> 97 ;
98 [label=<gini = 0.0<br/>samples = 3<br/>value = [0, 0, 0, 3, 0, 0, 0, 0, 0, 0, 0, 0, 0, 0, 0<br/>0, 0, 0, 0, 0, 0, 0, 0]<br/>class = 75000-100000>, fillcolor="#c5e539ff"] ;
92 -> 98 ;
99 [label=<YearBuilt &le; 15.0<br/>gini = 0.18<br/>samples = 10<br/>value = [1, 0, 0, 9, 0, 0, 0, 0, 0, 0, 0, 0, 0, 0, 0<br/>0, 0, 0, 0, 0, 0, 0, 0]<br/>class = 75000-100000>, fillcolor="#c5e539e3"] ;
83 -> 99 ;
100 [label=<LotFrontage &le; 26.0<br/>gini = 0.444<br/>samples = 3<br/>value = [1, 0, 0, 2, 0, 0, 0, 0, 0, 0, 0, 0, 0, 0, 0<br/>0, 0, 0, 0, 0, 0, 0, 0]<br/>class = 75000-100000>, fillcolor="#c5e5397f"] ;
99 -> 100 ;
101 [label=<gini = 0.0<br/>samples = 1<br/>value = [1, 0, 0, 0, 0, 0, 0, 0, 0, 0, 0, 0, 0, 0, 0<br/>0, 0, 0, 0, 0, 0, 0, 0]<br/>class = 0-25000>, fillcolor="#e58139ff"] ;
100 -> 101 ;
102 [label=<gini = 0.0<br/>samples = 2<br/>value = [0, 0, 0, 2, 0, 0, 0, 0, 0, 0, 0, 0, 0, 0, 0<br/>0, 0, 0, 0, 0, 0, 0, 0]<br/>class = 75000-100000>, fillcolor="#c5e539ff"] ;
100 -> 102 ;
103 [label=<gini = 0.0<br/>samples = 7<br/>value = [0, 0, 0, 7, 0, 0, 0, 0, 0, 0, 0, 0, 0, 0, 0<br/>0, 0, 0, 0, 0, 0, 0, 0]<br/>class = 75000-100000>, fillcolor="#c5e539ff"] ;
99 -> 103 ;
104 [label=<LotArea &le; 17.5<br/>gini = 0.721<br/>samples = 124<br/>value = [0, 1, 12, 26, 56, 16, 8, 2, 0, 3, 0, 0, 0, 0<br/>0, 0, 0, 0, 0, 0, 0, 0, 0]<br/>class = 100000-125000>, fillcolor="#98e5394e"] ;
82 -> 104 ;
105 [label=<gini = 0.0<br/>samples = 3<br/>value = [0, 0, 0, 3, 0, 0, 0, 0, 0, 0, 0, 0, 0, 0, 0<br/>0, 0, 0, 0, 0, 0, 0, 0]<br/>class = 75000-100000>, fillcolor="#c5e539ff"] ;
104 -> 105 ;
106 [label=<YearBuilt &le; 31.0<br/>gini = 0.717<br/>samples = 121<br/>value = [0, 1, 12, 23, 56, 16, 8, 2, 0, 3, 0, 0, 0, 0<br/>0, 0, 0, 0, 0, 0, 0, 0, 0]<br/>class = 100000-125000>, fillcolor="#98e53956"] ;
104 -> 106 ;
107 [label=<LotArea &le; 600.5<br/>gini = 0.789<br/>samples = 56<br/>value = [0, 0, 6, 13, 18, 10, 5, 2, 0, 2, 0, 0, 0, 0<br/>0, 0, 0, 0, 0, 0, 0, 0, 0]<br/>class = 100000-125000>, fillcolor="#98e5391e"] ;
106 -> 107 ;
108 [label=<LotArea &le; 330.0<br/>gini = 0.73<br/>samples = 42<br/>value = [0, 0, 5, 11, 17, 5, 4, 0, 0, 0, 0, 0, 0, 0<br/>0, 0, 0, 0, 0, 0, 0, 0, 0]<br/>class = 100000-125000>, fillcolor="#98e53931"] ;
107 -> 108 ;
109 [label=<Neighborhood &le; 17.5<br/>gini = 0.74<br/>samples = 24<br/>value = [0, 0, 4, 9, 6, 4, 1, 0, 0, 0, 0, 0, 0, 0, 0<br/>0, 0, 0, 0, 0, 0, 0, 0]<br/>class = 75000-100000>, fillcolor="#c5e5392a"] ;
108 -> 109 ;
110 [label=<Neighborhood &le; 8.0<br/>gini = 0.721<br/>samples = 21<br/>value = [0, 0, 4, 9, 3, 4, 1, 0, 0, 0, 0, 0, 0, 0, 0<br/>0, 0, 0, 0, 0, 0, 0, 0]<br/>class = 75000-100000>, fillcolor="#c5e5394b"] ;
109 -> 110 ;
111 [label=<YearBuilt &le; 25.5<br/>gini = 0.545<br/>samples = 11<br/>value = [0, 0, 0, 7, 2, 1, 1, 0, 0, 0, 0, 0, 0, 0, 0<br/>0, 0, 0, 0, 0, 0, 0, 0]<br/>class = 75000-100000>, fillcolor="#c5e5398e"] ;
110 -> 111 ;
112 [label=<Neighborhood &le; 6.5<br/>gini = 0.722<br/>samples = 6<br/>value = [0, 0, 0, 2, 2, 1, 1, 0, 0, 0, 0, 0, 0, 0, 0<br/>0, 0, 0, 0, 0, 0, 0, 0]<br/>class = 75000-100000>, fillcolor="#c5e53900"] ;
111 -> 112 ;
113 [label=<LotArea &le; 188.5<br/>gini = 0.625<br/>samples = 4<br/>value = [0, 0, 0, 0, 2, 1, 1, 0, 0, 0, 0, 0, 0, 0, 0<br/>0, 0, 0, 0, 0, 0, 0, 0]<br/>class = 100000-125000>, fillcolor="#98e53955"] ;
112 -> 113 ;
114 [label=<gini = 0.0<br/>samples = 2<br/>value = [0, 0, 0, 0, 2, 0, 0, 0, 0, 0, 0, 0, 0, 0, 0<br/>0, 0, 0, 0, 0, 0, 0, 0]<br/>class = 100000-125000>, fillcolor="#98e539ff"] ;
113 -> 114 ;
115 [label=<YearBuilt &le; 23.5<br/>gini = 0.5<br/>samples = 2<br/>value = [0, 0, 0, 0, 0, 1, 1, 0, 0, 0, 0, 0, 0, 0, 0<br/>0, 0, 0, 0, 0, 0, 0, 0]<br/>class = 125000-150000>, fillcolor="#6ae53900"] ;
113 -> 115 ;
116 [label=<gini = 0.0<br/>samples = 1<br/>value = [0, 0, 0, 0, 0, 0, 1, 0, 0, 0, 0, 0, 0, 0, 0<br/>0, 0, 0, 0, 0, 0, 0, 0]<br/>class = 150000-175000>, fillcolor="#3fe539ff"] ;
115 -> 116 ;
117 [label=<gini = 0.0<br/>samples = 1<br/>value = [0, 0, 0, 0, 0, 1, 0, 0, 0, 0, 0, 0, 0, 0, 0<br/>0, 0, 0, 0, 0, 0, 0, 0]<br/>class = 125000-150000>, fillcolor="#6ae539ff"] ;
115 -> 117 ;
118 [label=<gini = 0.0<br/>samples = 2<br/>value = [0, 0, 0, 2, 0, 0, 0, 0, 0, 0, 0, 0, 0, 0, 0<br/>0, 0, 0, 0, 0, 0, 0, 0]<br/>class = 75000-100000>, fillcolor="#c5e539ff"] ;
112 -> 118 ;
119 [label=<gini = 0.0<br/>samples = 5<br/>value = [0, 0, 0, 5, 0, 0, 0, 0, 0, 0, 0, 0, 0, 0, 0<br/>0, 0, 0, 0, 0, 0, 0, 0]<br/>class = 75000-100000>, fillcolor="#c5e539ff"] ;
111 -> 119 ;
120 [label=<OverallQual &le; 5.5<br/>gini = 0.7<br/>samples = 10<br/>value = [0, 0, 4, 2, 1, 3, 0, 0, 0, 0, 0, 0, 0, 0, 0<br/>0, 0, 0, 0, 0, 0, 0, 0]<br/>class = 50000-75000>, fillcolor="#e5da3924"] ;
110 -> 120 ;
121 [label=<YearBuilt &le; 19.0<br/>gini = 0.656<br/>samples = 8<br/>value = [0, 0, 4, 2, 1, 1, 0, 0, 0, 0, 0, 0, 0, 0, 0<br/>0, 0, 0, 0, 0, 0, 0, 0]<br/>class = 50000-75000>, fillcolor="#e5da3955"] ;
120 -> 121 ;
122 [label=<LotFrontage &le; 18.0<br/>gini = 0.625<br/>samples = 4<br/>value = [0, 0, 1, 2, 1, 0, 0, 0, 0, 0, 0, 0, 0, 0, 0<br/>0, 0, 0, 0, 0, 0, 0, 0]<br/>class = 75000-100000>, fillcolor="#c5e53955"] ;
121 -> 122 ;
123 [label=<gini = 0.0<br/>samples = 1<br/>value = [0, 0, 0, 0, 1, 0, 0, 0, 0, 0, 0, 0, 0, 0, 0<br/>0, 0, 0, 0, 0, 0, 0, 0]<br/>class = 100000-125000>, fillcolor="#98e539ff"] ;
122 -> 123 ;
124 [label=<LotFrontage &le; 32.5<br/>gini = 0.444<br/>samples = 3<br/>value = [0, 0, 1, 2, 0, 0, 0, 0, 0, 0, 0, 0, 0, 0, 0<br/>0, 0, 0, 0, 0, 0, 0, 0]<br/>class = 75000-100000>, fillcolor="#c5e5397f"] ;
122 -> 124 ;
125 [label=<gini = 0.0<br/>samples = 2<br/>value = [0, 0, 0, 2, 0, 0, 0, 0, 0, 0, 0, 0, 0, 0, 0<br/>0, 0, 0, 0, 0, 0, 0, 0]<br/>class = 75000-100000>, fillcolor="#c5e539ff"] ;
124 -> 125 ;
126 [label=<gini = 0.0<br/>samples = 1<br/>value = [0, 0, 1, 0, 0, 0, 0, 0, 0, 0, 0, 0, 0, 0, 0<br/>0, 0, 0, 0, 0, 0, 0, 0]<br/>class = 50000-75000>, fillcolor="#e5da39ff"] ;
124 -> 126 ;
127 [label=<MSSubClass &le; 3.0<br/>gini = 0.375<br/>samples = 4<br/>value = [0, 0, 3, 0, 0, 1, 0, 0, 0, 0, 0, 0, 0, 0, 0<br/>0, 0, 0, 0, 0, 0, 0, 0]<br/>class = 50000-75000>, fillcolor="#e5da39aa"] ;
121 -> 127 ;
128 [label=<gini = 0.0<br/>samples = 1<br/>value = [0, 0, 0, 0, 0, 1, 0, 0, 0, 0, 0, 0, 0, 0, 0<br/>0, 0, 0, 0, 0, 0, 0, 0]<br/>class = 125000-150000>, fillcolor="#6ae539ff"] ;
127 -> 128 ;
129 [label=<gini = 0.0<br/>samples = 3<br/>value = [0, 0, 3, 0, 0, 0, 0, 0, 0, 0, 0, 0, 0, 0, 0<br/>0, 0, 0, 0, 0, 0, 0, 0]<br/>class = 50000-75000>, fillcolor="#e5da39ff"] ;
127 -> 129 ;
130 [label=<gini = 0.0<br/>samples = 2<br/>value = [0, 0, 0, 0, 0, 2, 0, 0, 0, 0, 0, 0, 0, 0, 0<br/>0, 0, 0, 0, 0, 0, 0, 0]<br/>class = 125000-150000>, fillcolor="#6ae539ff"] ;
120 -> 130 ;
131 [label=<gini = 0.0<br/>samples = 3<br/>value = [0, 0, 0, 0, 3, 0, 0, 0, 0, 0, 0, 0, 0, 0, 0<br/>0, 0, 0, 0, 0, 0, 0, 0]<br/>class = 100000-125000>, fillcolor="#98e539ff"] ;
109 -> 131 ;
132 [label=<YearBuilt &le; 24.5<br/>gini = 0.58<br/>samples = 18<br/>value = [0, 0, 1, 2, 11, 1, 3, 0, 0, 0, 0, 0, 0, 0<br/>0, 0, 0, 0, 0, 0, 0, 0, 0]<br/>class = 100000-125000>, fillcolor="#98e53988"] ;
108 -> 132 ;
133 [label=<OverallCond &le; 2.5<br/>gini = 0.292<br/>samples = 12<br/>value = [0, 0, 0, 1, 10, 1, 0, 0, 0, 0, 0, 0, 0, 0<br/>0, 0, 0, 0, 0, 0, 0, 0, 0]<br/>class = 100000-125000>, fillcolor="#98e539d1"] ;
132 -> 133 ;
134 [label=<gini = 0.0<br/>samples = 1<br/>value = [0, 0, 0, 1, 0, 0, 0, 0, 0, 0, 0, 0, 0, 0, 0<br/>0, 0, 0, 0, 0, 0, 0, 0]<br/>class = 75000-100000>, fillcolor="#c5e539ff"] ;
133 -> 134 ;
135 [label=<Neighborhood &le; 4.5<br/>gini = 0.165<br/>samples = 11<br/>value = [0, 0, 0, 0, 10, 1, 0, 0, 0, 0, 0, 0, 0, 0<br/>0, 0, 0, 0, 0, 0, 0, 0, 0]<br/>class = 100000-125000>, fillcolor="#98e539e6"] ;
133 -> 135 ;
136 [label=<gini = 0.0<br/>samples = 1<br/>value = [0, 0, 0, 0, 0, 1, 0, 0, 0, 0, 0, 0, 0, 0, 0<br/>0, 0, 0, 0, 0, 0, 0, 0]<br/>class = 125000-150000>, fillcolor="#6ae539ff"] ;
135 -> 136 ;
137 [label=<gini = 0.0<br/>samples = 10<br/>value = [0, 0, 0, 0, 10, 0, 0, 0, 0, 0, 0, 0, 0, 0<br/>0, 0, 0, 0, 0, 0, 0, 0, 0]<br/>class = 100000-125000>, fillcolor="#98e539ff"] ;
135 -> 137 ;
138 [label=<LotArea &le; 553.0<br/>gini = 0.667<br/>samples = 6<br/>value = [0, 0, 1, 1, 1, 0, 3, 0, 0, 0, 0, 0, 0, 0, 0<br/>0, 0, 0, 0, 0, 0, 0, 0]<br/>class = 150000-175000>, fillcolor="#3fe53966"] ;
132 -> 138 ;
139 [label=<OverallCond &le; 3.5<br/>gini = 0.56<br/>samples = 5<br/>value = [0, 0, 1, 1, 0, 0, 3, 0, 0, 0, 0, 0, 0, 0, 0<br/>0, 0, 0, 0, 0, 0, 0, 0]<br/>class = 150000-175000>, fillcolor="#3fe5397f"] ;
138 -> 139 ;
140 [label=<gini = 0.0<br/>samples = 1<br/>value = [0, 0, 1, 0, 0, 0, 0, 0, 0, 0, 0, 0, 0, 0, 0<br/>0, 0, 0, 0, 0, 0, 0, 0]<br/>class = 50000-75000>, fillcolor="#e5da39ff"] ;
139 -> 140 ;
141 [label=<Neighborhood &le; 12.0<br/>gini = 0.375<br/>samples = 4<br/>value = [0, 0, 0, 1, 0, 0, 3, 0, 0, 0, 0, 0, 0, 0, 0<br/>0, 0, 0, 0, 0, 0, 0, 0]<br/>class = 150000-175000>, fillcolor="#3fe539aa"] ;
139 -> 141 ;
142 [label=<Neighborhood &le; 5.0<br/>gini = 0.5<br/>samples = 2<br/>value = [0, 0, 0, 1, 0, 0, 1, 0, 0, 0, 0, 0, 0, 0, 0<br/>0, 0, 0, 0, 0, 0, 0, 0]<br/>class = 75000-100000>, fillcolor="#c5e53900"] ;
141 -> 142 ;
143 [label=<gini = 0.0<br/>samples = 1<br/>value = [0, 0, 0, 0, 0, 0, 1, 0, 0, 0, 0, 0, 0, 0, 0<br/>0, 0, 0, 0, 0, 0, 0, 0]<br/>class = 150000-175000>, fillcolor="#3fe539ff"] ;
142 -> 143 ;
144 [label=<gini = 0.0<br/>samples = 1<br/>value = [0, 0, 0, 1, 0, 0, 0, 0, 0, 0, 0, 0, 0, 0, 0<br/>0, 0, 0, 0, 0, 0, 0, 0]<br/>class = 75000-100000>, fillcolor="#c5e539ff"] ;
142 -> 144 ;
145 [label=<gini = 0.0<br/>samples = 2<br/>value = [0, 0, 0, 0, 0, 0, 2, 0, 0, 0, 0, 0, 0, 0, 0<br/>0, 0, 0, 0, 0, 0, 0, 0]<br/>class = 150000-175000>, fillcolor="#3fe539ff"] ;
141 -> 145 ;
146 [label=<gini = 0.0<br/>samples = 1<br/>value = [0, 0, 0, 0, 1, 0, 0, 0, 0, 0, 0, 0, 0, 0, 0<br/>0, 0, 0, 0, 0, 0, 0, 0]<br/>class = 100000-125000>, fillcolor="#98e539ff"] ;
138 -> 146 ;
147 [label=<MSSubClass &le; 5.0<br/>gini = 0.796<br/>samples = 14<br/>value = [0, 0, 1, 2, 1, 5, 1, 2, 0, 2, 0, 0, 0, 0, 0<br/>0, 0, 0, 0, 0, 0, 0, 0]<br/>class = 125000-150000>, fillcolor="#6ae53940"] ;
107 -> 147 ;
148 [label=<Neighborhood &le; 6.5<br/>gini = 0.778<br/>samples = 6<br/>value = [0, 0, 1, 2, 1, 0, 0, 1, 0, 1, 0, 0, 0, 0, 0<br/>0, 0, 0, 0, 0, 0, 0, 0]<br/>class = 75000-100000>, fillcolor="#c5e53933"] ;
147 -> 148 ;
149 [label=<LotArea &le; 739.5<br/>gini = 0.5<br/>samples = 2<br/>value = [0, 0, 1, 0, 0, 0, 0, 1, 0, 0, 0, 0, 0, 0, 0<br/>0, 0, 0, 0, 0, 0, 0, 0]<br/>class = 50000-75000>, fillcolor="#e5da3900"] ;
148 -> 149 ;
150 [label=<gini = 0.0<br/>samples = 1<br/>value = [0, 0, 1, 0, 0, 0, 0, 0, 0, 0, 0, 0, 0, 0, 0<br/>0, 0, 0, 0, 0, 0, 0, 0]<br/>class = 50000-75000>, fillcolor="#e5da39ff"] ;
149 -> 150 ;
151 [label=<gini = 0.0<br/>samples = 1<br/>value = [0, 0, 0, 0, 0, 0, 0, 1, 0, 0, 0, 0, 0, 0, 0<br/>0, 0, 0, 0, 0, 0, 0, 0]<br/>class = 175000-200000>, fillcolor="#39e561ff"] ;
149 -> 151 ;
152 [label=<ExterCond &le; 3.0<br/>gini = 0.625<br/>samples = 4<br/>value = [0, 0, 0, 2, 1, 0, 0, 0, 0, 1, 0, 0, 0, 0, 0<br/>0, 0, 0, 0, 0, 0, 0, 0]<br/>class = 75000-100000>, fillcolor="#c5e53955"] ;
148 -> 152 ;
153 [label=<OverallCond &le; 4.5<br/>gini = 0.5<br/>samples = 2<br/>value = [0, 0, 0, 0, 1, 0, 0, 0, 0, 1, 0, 0, 0, 0, 0<br/>0, 0, 0, 0, 0, 0, 0, 0]<br/>class = 100000-125000>, fillcolor="#98e53900"] ;
152 -> 153 ;
154 [label=<gini = 0.0<br/>samples = 1<br/>value = [0, 0, 0, 0, 1, 0, 0, 0, 0, 0, 0, 0, 0, 0, 0<br/>0, 0, 0, 0, 0, 0, 0, 0]<br/>class = 100000-125000>, fillcolor="#98e539ff"] ;
153 -> 154 ;
155 [label=<gini = 0.0<br/>samples = 1<br/>value = [0, 0, 0, 0, 0, 0, 0, 0, 0, 1, 0, 0, 0, 0, 0<br/>0, 0, 0, 0, 0, 0, 0, 0]<br/>class = 225000-250000>, fillcolor="#39e5baff"] ;
153 -> 155 ;
156 [label=<gini = 0.0<br/>samples = 2<br/>value = [0, 0, 0, 2, 0, 0, 0, 0, 0, 0, 0, 0, 0, 0, 0<br/>0, 0, 0, 0, 0, 0, 0, 0]<br/>class = 75000-100000>, fillcolor="#c5e539ff"] ;
152 -> 156 ;
157 [label=<LotArea &le; 734.5<br/>gini = 0.562<br/>samples = 8<br/>value = [0, 0, 0, 0, 0, 5, 1, 1, 0, 1, 0, 0, 0, 0, 0<br/>0, 0, 0, 0, 0, 0, 0, 0]<br/>class = 125000-150000>, fillcolor="#6ae53992"] ;
147 -> 157 ;
158 [label=<MSZoning &le; 2.5<br/>gini = 0.278<br/>samples = 6<br/>value = [0, 0, 0, 0, 0, 5, 0, 1, 0, 0, 0, 0, 0, 0, 0<br/>0, 0, 0, 0, 0, 0, 0, 0]<br/>class = 125000-150000>, fillcolor="#6ae539cc"] ;
157 -> 158 ;
159 [label=<gini = 0.0<br/>samples = 1<br/>value = [0, 0, 0, 0, 0, 0, 0, 1, 0, 0, 0, 0, 0, 0, 0<br/>0, 0, 0, 0, 0, 0, 0, 0]<br/>class = 175000-200000>, fillcolor="#39e561ff"] ;
158 -> 159 ;
160 [label=<gini = 0.0<br/>samples = 5<br/>value = [0, 0, 0, 0, 0, 5, 0, 0, 0, 0, 0, 0, 0, 0, 0<br/>0, 0, 0, 0, 0, 0, 0, 0]<br/>class = 125000-150000>, fillcolor="#6ae539ff"] ;
158 -> 160 ;
161 [label=<LotFrontage &le; 33.5<br/>gini = 0.5<br/>samples = 2<br/>value = [0, 0, 0, 0, 0, 0, 1, 0, 0, 1, 0, 0, 0, 0, 0<br/>0, 0, 0, 0, 0, 0, 0, 0]<br/>class = 150000-175000>, fillcolor="#3fe53900"] ;
157 -> 161 ;
162 [label=<gini = 0.0<br/>samples = 1<br/>value = [0, 0, 0, 0, 0, 0, 1, 0, 0, 0, 0, 0, 0, 0, 0<br/>0, 0, 0, 0, 0, 0, 0, 0]<br/>class = 150000-175000>, fillcolor="#3fe539ff"] ;
161 -> 162 ;
163 [label=<gini = 0.0<br/>samples = 1<br/>value = [0, 0, 0, 0, 0, 0, 0, 0, 0, 1, 0, 0, 0, 0, 0<br/>0, 0, 0, 0, 0, 0, 0, 0]<br/>class = 225000-250000>, fillcolor="#39e5baff"] ;
161 -> 163 ;
164 [label=<Neighborhood &le; 15.0<br/>gini = 0.615<br/>samples = 65<br/>value = [0, 1, 6, 10, 38, 6, 3, 0, 0, 1, 0, 0, 0, 0<br/>0, 0, 0, 0, 0, 0, 0, 0, 0]<br/>class = 100000-125000>, fillcolor="#98e53982"] ;
106 -> 164 ;
165 [label=<LotArea &le; 203.5<br/>gini = 0.479<br/>samples = 44<br/>value = [0, 0, 2, 5, 31, 4, 1, 0, 0, 1, 0, 0, 0, 0<br/>0, 0, 0, 0, 0, 0, 0, 0, 0]<br/>class = 100000-125000>, fillcolor="#98e539aa"] ;
164 -> 165 ;
166 [label=<CentralAir &le; 0.5<br/>gini = 0.322<br/>samples = 21<br/>value = [0, 0, 1, 0, 17, 3, 0, 0, 0, 0, 0, 0, 0, 0<br/>0, 0, 0, 0, 0, 0, 0, 0, 0]<br/>class = 100000-125000>, fillcolor="#98e539c6"] ;
165 -> 166 ;
167 [label=<gini = 0.0<br/>samples = 1<br/>value = [0, 0, 1, 0, 0, 0, 0, 0, 0, 0, 0, 0, 0, 0, 0<br/>0, 0, 0, 0, 0, 0, 0, 0]<br/>class = 50000-75000>, fillcolor="#e5da39ff"] ;
166 -> 167 ;
168 [label=<Neighborhood &le; 7.5<br/>gini = 0.255<br/>samples = 20<br/>value = [0, 0, 0, 0, 17, 3, 0, 0, 0, 0, 0, 0, 0, 0<br/>0, 0, 0, 0, 0, 0, 0, 0, 0]<br/>class = 100000-125000>, fillcolor="#98e539d2"] ;
166 -> 168 ;
169 [label=<LotArea &le; 115.0<br/>gini = 0.375<br/>samples = 12<br/>value = [0, 0, 0, 0, 9, 3, 0, 0, 0, 0, 0, 0, 0, 0, 0<br/>0, 0, 0, 0, 0, 0, 0, 0]<br/>class = 100000-125000>, fillcolor="#98e539aa"] ;
168 -> 169 ;
170 [label=<gini = 0.0<br/>samples = 1<br/>value = [0, 0, 0, 0, 0, 1, 0, 0, 0, 0, 0, 0, 0, 0, 0<br/>0, 0, 0, 0, 0, 0, 0, 0]<br/>class = 125000-150000>, fillcolor="#6ae539ff"] ;
169 -> 170 ;
171 [label=<Neighborhood &le; 5.5<br/>gini = 0.298<br/>samples = 11<br/>value = [0, 0, 0, 0, 9, 2, 0, 0, 0, 0, 0, 0, 0, 0, 0<br/>0, 0, 0, 0, 0, 0, 0, 0]<br/>class = 100000-125000>, fillcolor="#98e539c6"] ;
169 -> 171 ;
172 [label=<YearBuilt &le; 34.5<br/>gini = 0.198<br/>samples = 9<br/>value = [0, 0, 0, 0, 8, 1, 0, 0, 0, 0, 0, 0, 0, 0, 0<br/>0, 0, 0, 0, 0, 0, 0, 0]<br/>class = 100000-125000>, fillcolor="#98e539df"] ;
171 -> 172 ;
173 [label=<YearBuilt &le; 33.5<br/>gini = 0.444<br/>samples = 3<br/>value = [0, 0, 0, 0, 2, 1, 0, 0, 0, 0, 0, 0, 0, 0, 0<br/>0, 0, 0, 0, 0, 0, 0, 0]<br/>class = 100000-125000>, fillcolor="#98e5397f"] ;
172 -> 173 ;
174 [label=<gini = 0.0<br/>samples = 2<br/>value = [0, 0, 0, 0, 2, 0, 0, 0, 0, 0, 0, 0, 0, 0, 0<br/>0, 0, 0, 0, 0, 0, 0, 0]<br/>class = 100000-125000>, fillcolor="#98e539ff"] ;
173 -> 174 ;
175 [label=<gini = 0.0<br/>samples = 1<br/>value = [0, 0, 0, 0, 0, 1, 0, 0, 0, 0, 0, 0, 0, 0, 0<br/>0, 0, 0, 0, 0, 0, 0, 0]<br/>class = 125000-150000>, fillcolor="#6ae539ff"] ;
173 -> 175 ;
176 [label=<gini = 0.0<br/>samples = 6<br/>value = [0, 0, 0, 0, 6, 0, 0, 0, 0, 0, 0, 0, 0, 0, 0<br/>0, 0, 0, 0, 0, 0, 0, 0]<br/>class = 100000-125000>, fillcolor="#98e539ff"] ;
172 -> 176 ;
177 [label=<OverallCond &le; 3.5<br/>gini = 0.5<br/>samples = 2<br/>value = [0, 0, 0, 0, 1, 1, 0, 0, 0, 0, 0, 0, 0, 0, 0<br/>0, 0, 0, 0, 0, 0, 0, 0]<br/>class = 100000-125000>, fillcolor="#98e53900"] ;
171 -> 177 ;
178 [label=<gini = 0.0<br/>samples = 1<br/>value = [0, 0, 0, 0, 0, 1, 0, 0, 0, 0, 0, 0, 0, 0, 0<br/>0, 0, 0, 0, 0, 0, 0, 0]<br/>class = 125000-150000>, fillcolor="#6ae539ff"] ;
177 -> 178 ;
179 [label=<gini = 0.0<br/>samples = 1<br/>value = [0, 0, 0, 0, 1, 0, 0, 0, 0, 0, 0, 0, 0, 0, 0<br/>0, 0, 0, 0, 0, 0, 0, 0]<br/>class = 100000-125000>, fillcolor="#98e539ff"] ;
177 -> 179 ;
180 [label=<gini = 0.0<br/>samples = 8<br/>value = [0, 0, 0, 0, 8, 0, 0, 0, 0, 0, 0, 0, 0, 0, 0<br/>0, 0, 0, 0, 0, 0, 0, 0]<br/>class = 100000-125000>, fillcolor="#98e539ff"] ;
168 -> 180 ;
181 [label=<LotArea &le; 459.0<br/>gini = 0.575<br/>samples = 23<br/>value = [0, 0, 1, 5, 14, 1, 1, 0, 0, 1, 0, 0, 0, 0<br/>0, 0, 0, 0, 0, 0, 0, 0, 0]<br/>class = 100000-125000>, fillcolor="#98e53980"] ;
165 -> 181 ;
182 [label=<LotArea &le; 419.5<br/>gini = 0.673<br/>samples = 14<br/>value = [0, 0, 1, 5, 6, 0, 1, 0, 0, 1, 0, 0, 0, 0, 0<br/>0, 0, 0, 0, 0, 0, 0, 0]<br/>class = 100000-125000>, fillcolor="#98e5391c"] ;
181 -> 182 ;
183 [label=<YearBuilt &le; 69.5<br/>gini = 0.569<br/>samples = 12<br/>value = [0, 0, 0, 5, 6, 0, 0, 0, 0, 1, 0, 0, 0, 0, 0<br/>0, 0, 0, 0, 0, 0, 0, 0]<br/>class = 100000-125000>, fillcolor="#98e53924"] ;
182 -> 183 ;
184 [label=<YearBuilt &le; 41.0<br/>gini = 0.568<br/>samples = 9<br/>value = [0, 0, 0, 5, 3, 0, 0, 0, 0, 1, 0, 0, 0, 0, 0<br/>0, 0, 0, 0, 0, 0, 0, 0]<br/>class = 75000-100000>, fillcolor="#c5e53955"] ;
183 -> 184 ;
185 [label=<gini = 0.0<br/>samples = 2<br/>value = [0, 0, 0, 0, 2, 0, 0, 0, 0, 0, 0, 0, 0, 0, 0<br/>0, 0, 0, 0, 0, 0, 0, 0]<br/>class = 100000-125000>, fillcolor="#98e539ff"] ;
184 -> 185 ;
186 [label=<OverallCond &le; 5.0<br/>gini = 0.449<br/>samples = 7<br/>value = [0, 0, 0, 5, 1, 0, 0, 0, 0, 1, 0, 0, 0, 0, 0<br/>0, 0, 0, 0, 0, 0, 0, 0]<br/>class = 75000-100000>, fillcolor="#c5e539aa"] ;
184 -> 186 ;
187 [label=<CentralAir &le; 0.5<br/>gini = 0.278<br/>samples = 6<br/>value = [0, 0, 0, 5, 1, 0, 0, 0, 0, 0, 0, 0, 0, 0, 0<br/>0, 0, 0, 0, 0, 0, 0, 0]<br/>class = 75000-100000>, fillcolor="#c5e539cc"] ;
186 -> 187 ;
188 [label=<gini = 0.0<br/>samples = 1<br/>value = [0, 0, 0, 0, 1, 0, 0, 0, 0, 0, 0, 0, 0, 0, 0<br/>0, 0, 0, 0, 0, 0, 0, 0]<br/>class = 100000-125000>, fillcolor="#98e539ff"] ;
187 -> 188 ;
189 [label=<gini = 0.0<br/>samples = 5<br/>value = [0, 0, 0, 5, 0, 0, 0, 0, 0, 0, 0, 0, 0, 0, 0<br/>0, 0, 0, 0, 0, 0, 0, 0]<br/>class = 75000-100000>, fillcolor="#c5e539ff"] ;
187 -> 189 ;
190 [label=<gini = 0.0<br/>samples = 1<br/>value = [0, 0, 0, 0, 0, 0, 0, 0, 0, 1, 0, 0, 0, 0, 0<br/>0, 0, 0, 0, 0, 0, 0, 0]<br/>class = 225000-250000>, fillcolor="#39e5baff"] ;
186 -> 190 ;
191 [label=<gini = 0.0<br/>samples = 3<br/>value = [0, 0, 0, 0, 3, 0, 0, 0, 0, 0, 0, 0, 0, 0, 0<br/>0, 0, 0, 0, 0, 0, 0, 0]<br/>class = 100000-125000>, fillcolor="#98e539ff"] ;
183 -> 191 ;
192 [label=<Neighborhood &le; 7.0<br/>gini = 0.5<br/>samples = 2<br/>value = [0, 0, 1, 0, 0, 0, 1, 0, 0, 0, 0, 0, 0, 0, 0<br/>0, 0, 0, 0, 0, 0, 0, 0]<br/>class = 50000-75000>, fillcolor="#e5da3900"] ;
182 -> 192 ;
193 [label=<gini = 0.0<br/>samples = 1<br/>value = [0, 0, 1, 0, 0, 0, 0, 0, 0, 0, 0, 0, 0, 0, 0<br/>0, 0, 0, 0, 0, 0, 0, 0]<br/>class = 50000-75000>, fillcolor="#e5da39ff"] ;
192 -> 193 ;
194 [label=<gini = 0.0<br/>samples = 1<br/>value = [0, 0, 0, 0, 0, 0, 1, 0, 0, 0, 0, 0, 0, 0, 0<br/>0, 0, 0, 0, 0, 0, 0, 0]<br/>class = 150000-175000>, fillcolor="#3fe539ff"] ;
192 -> 194 ;
195 [label=<LotArea &le; 812.0<br/>gini = 0.198<br/>samples = 9<br/>value = [0, 0, 0, 0, 8, 1, 0, 0, 0, 0, 0, 0, 0, 0, 0<br/>0, 0, 0, 0, 0, 0, 0, 0]<br/>class = 100000-125000>, fillcolor="#98e539df"] ;
181 -> 195 ;
196 [label=<gini = 0.0<br/>samples = 7<br/>value = [0, 0, 0, 0, 7, 0, 0, 0, 0, 0, 0, 0, 0, 0, 0<br/>0, 0, 0, 0, 0, 0, 0, 0]<br/>class = 100000-125000>, fillcolor="#98e539ff"] ;
195 -> 196 ;
197 [label=<LotFrontage &le; 28.0<br/>gini = 0.5<br/>samples = 2<br/>value = [0, 0, 0, 0, 1, 1, 0, 0, 0, 0, 0, 0, 0, 0, 0<br/>0, 0, 0, 0, 0, 0, 0, 0]<br/>class = 100000-125000>, fillcolor="#98e53900"] ;
195 -> 197 ;
198 [label=<gini = 0.0<br/>samples = 1<br/>value = [0, 0, 0, 0, 0, 1, 0, 0, 0, 0, 0, 0, 0, 0, 0<br/>0, 0, 0, 0, 0, 0, 0, 0]<br/>class = 125000-150000>, fillcolor="#6ae539ff"] ;
197 -> 198 ;
199 [label=<gini = 0.0<br/>samples = 1<br/>value = [0, 0, 0, 0, 1, 0, 0, 0, 0, 0, 0, 0, 0, 0, 0<br/>0, 0, 0, 0, 0, 0, 0, 0]<br/>class = 100000-125000>, fillcolor="#98e539ff"] ;
197 -> 199 ;
200 [label=<LotFrontage &le; 28.5<br/>gini = 0.776<br/>samples = 21<br/>value = [0, 1, 4, 5, 7, 2, 2, 0, 0, 0, 0, 0, 0, 0, 0<br/>0, 0, 0, 0, 0, 0, 0, 0]<br/>class = 100000-125000>, fillcolor="#98e53920"] ;
164 -> 200 ;
201 [label=<LotFrontage &le; 22.5<br/>gini = 0.571<br/>samples = 7<br/>value = [0, 1, 4, 0, 2, 0, 0, 0, 0, 0, 0, 0, 0, 0, 0<br/>0, 0, 0, 0, 0, 0, 0, 0]<br/>class = 50000-75000>, fillcolor="#e5da3966"] ;
200 -> 201 ;
202 [label=<BldgType &le; 0.5<br/>gini = 0.444<br/>samples = 3<br/>value = [0, 0, 1, 0, 2, 0, 0, 0, 0, 0, 0, 0, 0, 0, 0<br/>0, 0, 0, 0, 0, 0, 0, 0]<br/>class = 100000-125000>, fillcolor="#98e5397f"] ;
201 -> 202 ;
203 [label=<gini = 0.0<br/>samples = 2<br/>value = [0, 0, 0, 0, 2, 0, 0, 0, 0, 0, 0, 0, 0, 0, 0<br/>0, 0, 0, 0, 0, 0, 0, 0]<br/>class = 100000-125000>, fillcolor="#98e539ff"] ;
202 -> 203 ;
204 [label=<gini = 0.0<br/>samples = 1<br/>value = [0, 0, 1, 0, 0, 0, 0, 0, 0, 0, 0, 0, 0, 0, 0<br/>0, 0, 0, 0, 0, 0, 0, 0]<br/>class = 50000-75000>, fillcolor="#e5da39ff"] ;
202 -> 204 ;
205 [label=<HouseStyle &le; 0.5<br/>gini = 0.375<br/>samples = 4<br/>value = [0, 1, 3, 0, 0, 0, 0, 0, 0, 0, 0, 0, 0, 0, 0<br/>0, 0, 0, 0, 0, 0, 0, 0]<br/>class = 50000-75000>, fillcolor="#e5da39aa"] ;
201 -> 205 ;
206 [label=<LotArea &le; 297.5<br/>gini = 0.5<br/>samples = 2<br/>value = [0, 1, 1, 0, 0, 0, 0, 0, 0, 0, 0, 0, 0, 0, 0<br/>0, 0, 0, 0, 0, 0, 0, 0]<br/>class = 25000-50000>, fillcolor="#e5ac3900"] ;
205 -> 206 ;
207 [label=<gini = 0.0<br/>samples = 1<br/>value = [0, 1, 0, 0, 0, 0, 0, 0, 0, 0, 0, 0, 0, 0, 0<br/>0, 0, 0, 0, 0, 0, 0, 0]<br/>class = 25000-50000>, fillcolor="#e5ac39ff"] ;
206 -> 207 ;
208 [label=<gini = 0.0<br/>samples = 1<br/>value = [0, 0, 1, 0, 0, 0, 0, 0, 0, 0, 0, 0, 0, 0, 0<br/>0, 0, 0, 0, 0, 0, 0, 0]<br/>class = 50000-75000>, fillcolor="#e5da39ff"] ;
206 -> 208 ;
209 [label=<gini = 0.0<br/>samples = 2<br/>value = [0, 0, 2, 0, 0, 0, 0, 0, 0, 0, 0, 0, 0, 0, 0<br/>0, 0, 0, 0, 0, 0, 0, 0]<br/>class = 50000-75000>, fillcolor="#e5da39ff"] ;
205 -> 209 ;
210 [label=<HouseStyle &le; 4.0<br/>gini = 0.704<br/>samples = 14<br/>value = [0, 0, 0, 5, 5, 2, 2, 0, 0, 0, 0, 0, 0, 0, 0<br/>0, 0, 0, 0, 0, 0, 0, 0]<br/>class = 75000-100000>, fillcolor="#c5e53900"] ;
200 -> 210 ;
211 [label=<MSSubClass &le; 8.5<br/>gini = 0.571<br/>samples = 7<br/>value = [0, 0, 0, 4, 1, 0, 2, 0, 0, 0, 0, 0, 0, 0, 0<br/>0, 0, 0, 0, 0, 0, 0, 0]<br/>class = 75000-100000>, fillcolor="#c5e53966"] ;
210 -> 211 ;
212 [label=<YearBuilt &le; 42.5<br/>gini = 0.625<br/>samples = 4<br/>value = [0, 0, 0, 1, 1, 0, 2, 0, 0, 0, 0, 0, 0, 0, 0<br/>0, 0, 0, 0, 0, 0, 0, 0]<br/>class = 150000-175000>, fillcolor="#3fe53955"] ;
211 -> 212 ;
213 [label=<gini = 0.0<br/>samples = 2<br/>value = [0, 0, 0, 0, 0, 0, 2, 0, 0, 0, 0, 0, 0, 0, 0<br/>0, 0, 0, 0, 0, 0, 0, 0]<br/>class = 150000-175000>, fillcolor="#3fe539ff"] ;
212 -> 213 ;
214 [label=<OverallQual &le; 4.5<br/>gini = 0.5<br/>samples = 2<br/>value = [0, 0, 0, 1, 1, 0, 0, 0, 0, 0, 0, 0, 0, 0, 0<br/>0, 0, 0, 0, 0, 0, 0, 0]<br/>class = 75000-100000>, fillcolor="#c5e53900"] ;
212 -> 214 ;
215 [label=<gini = 0.0<br/>samples = 1<br/>value = [0, 0, 0, 1, 0, 0, 0, 0, 0, 0, 0, 0, 0, 0, 0<br/>0, 0, 0, 0, 0, 0, 0, 0]<br/>class = 75000-100000>, fillcolor="#c5e539ff"] ;
214 -> 215 ;
216 [label=<gini = 0.0<br/>samples = 1<br/>value = [0, 0, 0, 0, 1, 0, 0, 0, 0, 0, 0, 0, 0, 0, 0<br/>0, 0, 0, 0, 0, 0, 0, 0]<br/>class = 100000-125000>, fillcolor="#98e539ff"] ;
214 -> 216 ;
217 [label=<gini = 0.0<br/>samples = 3<br/>value = [0, 0, 0, 3, 0, 0, 0, 0, 0, 0, 0, 0, 0, 0, 0<br/>0, 0, 0, 0, 0, 0, 0, 0]<br/>class = 75000-100000>, fillcolor="#c5e539ff"] ;
211 -> 217 ;
218 [label=<LotArea &le; 219.0<br/>gini = 0.571<br/>samples = 7<br/>value = [0, 0, 0, 1, 4, 2, 0, 0, 0, 0, 0, 0, 0, 0, 0<br/>0, 0, 0, 0, 0, 0, 0, 0]<br/>class = 100000-125000>, fillcolor="#98e53966"] ;
210 -> 218 ;
219 [label=<Neighborhood &le; 17.5<br/>gini = 0.444<br/>samples = 6<br/>value = [0, 0, 0, 0, 4, 2, 0, 0, 0, 0, 0, 0, 0, 0, 0<br/>0, 0, 0, 0, 0, 0, 0, 0]<br/>class = 100000-125000>, fillcolor="#98e5397f"] ;
218 -> 219 ;
220 [label=<gini = 0.0<br/>samples = 3<br/>value = [0, 0, 0, 0, 3, 0, 0, 0, 0, 0, 0, 0, 0, 0, 0<br/>0, 0, 0, 0, 0, 0, 0, 0]<br/>class = 100000-125000>, fillcolor="#98e539ff"] ;
219 -> 220 ;
221 [label=<BldgType &le; 1.0<br/>gini = 0.444<br/>samples = 3<br/>value = [0, 0, 0, 0, 1, 2, 0, 0, 0, 0, 0, 0, 0, 0, 0<br/>0, 0, 0, 0, 0, 0, 0, 0]<br/>class = 125000-150000>, fillcolor="#6ae5397f"] ;
219 -> 221 ;
222 [label=<gini = 0.0<br/>samples = 1<br/>value = [0, 0, 0, 0, 0, 1, 0, 0, 0, 0, 0, 0, 0, 0, 0<br/>0, 0, 0, 0, 0, 0, 0, 0]<br/>class = 125000-150000>, fillcolor="#6ae539ff"] ;
221 -> 222 ;
223 [label=<HouseStyle &le; 5.5<br/>gini = 0.5<br/>samples = 2<br/>value = [0, 0, 0, 0, 1, 1, 0, 0, 0, 0, 0, 0, 0, 0, 0<br/>0, 0, 0, 0, 0, 0, 0, 0]<br/>class = 100000-125000>, fillcolor="#98e53900"] ;
221 -> 223 ;
224 [label=<gini = 0.0<br/>samples = 1<br/>value = [0, 0, 0, 0, 1, 0, 0, 0, 0, 0, 0, 0, 0, 0, 0<br/>0, 0, 0, 0, 0, 0, 0, 0]<br/>class = 100000-125000>, fillcolor="#98e539ff"] ;
223 -> 224 ;
225 [label=<gini = 0.0<br/>samples = 1<br/>value = [0, 0, 0, 0, 0, 1, 0, 0, 0, 0, 0, 0, 0, 0, 0<br/>0, 0, 0, 0, 0, 0, 0, 0]<br/>class = 125000-150000>, fillcolor="#6ae539ff"] ;
223 -> 225 ;
226 [label=<gini = 0.0<br/>samples = 1<br/>value = [0, 0, 0, 1, 0, 0, 0, 0, 0, 0, 0, 0, 0, 0, 0<br/>0, 0, 0, 0, 0, 0, 0, 0]<br/>class = 75000-100000>, fillcolor="#c5e539ff"] ;
218 -> 226 ;
227 [label=<OverallQual &le; 4.5<br/>gini = 0.784<br/>samples = 234<br/>value = [0, 1, 10, 31, 81, 60, 18, 10, 13, 2, 2, 2, 3<br/>1, 0, 0, 0, 0, 0, 0, 0, 0, 0]<br/>class = 100000-125000>, fillcolor="#98e5391f"] ;
1 -> 227 ;
228 [label=<OverallQual &le; 2.5<br/>gini = 0.683<br/>samples = 121<br/>value = [0, 1, 8, 26, 58, 23, 2, 2, 1, 0, 0, 0, 0, 0<br/>0, 0, 0, 0, 0, 0, 0, 0, 0]<br/>class = 100000-125000>, fillcolor="#98e53956"] ;
227 -> 228 ;
229 [label=<gini = 0.0<br/>samples = 3<br/>value = [0, 0, 3, 0, 0, 0, 0, 0, 0, 0, 0, 0, 0, 0, 0<br/>0, 0, 0, 0, 0, 0, 0, 0]<br/>class = 50000-75000>, fillcolor="#e5da39ff"] ;
228 -> 229 ;
230 [label=<OverallQual &le; 3.5<br/>gini = 0.669<br/>samples = 118<br/>value = [0, 1, 5, 26, 58, 23, 2, 2, 1, 0, 0, 0, 0, 0<br/>0, 0, 0, 0, 0, 0, 0, 0, 0]<br/>class = 100000-125000>, fillcolor="#98e53959"] ;
228 -> 230 ;
231 [label=<LotFrontage &le; 44.5<br/>gini = 0.617<br/>samples = 21<br/>value = [0, 1, 2, 10, 8, 0, 0, 0, 0, 0, 0, 0, 0, 0<br/>0, 0, 0, 0, 0, 0, 0, 0, 0]<br/>class = 75000-100000>, fillcolor="#c5e53927"] ;
230 -> 231 ;
232 [label=<LotFrontage &le; 40.5<br/>gini = 0.494<br/>samples = 9<br/>value = [0, 0, 2, 6, 1, 0, 0, 0, 0, 0, 0, 0, 0, 0, 0<br/>0, 0, 0, 0, 0, 0, 0, 0]<br/>class = 75000-100000>, fillcolor="#c5e53992"] ;
231 -> 232 ;
233 [label=<gini = 0.0<br/>samples = 1<br/>value = [0, 0, 0, 0, 1, 0, 0, 0, 0, 0, 0, 0, 0, 0, 0<br/>0, 0, 0, 0, 0, 0, 0, 0]<br/>class = 100000-125000>, fillcolor="#98e539ff"] ;
232 -> 233 ;
234 [label=<Neighborhood &le; 15.5<br/>gini = 0.375<br/>samples = 8<br/>value = [0, 0, 2, 6, 0, 0, 0, 0, 0, 0, 0, 0, 0, 0, 0<br/>0, 0, 0, 0, 0, 0, 0, 0]<br/>class = 75000-100000>, fillcolor="#c5e539aa"] ;
232 -> 234 ;
235 [label=<LotArea &le; 567.0<br/>gini = 0.245<br/>samples = 7<br/>value = [0, 0, 1, 6, 0, 0, 0, 0, 0, 0, 0, 0, 0, 0, 0<br/>0, 0, 0, 0, 0, 0, 0, 0]<br/>class = 75000-100000>, fillcolor="#c5e539d4"] ;
234 -> 235 ;
236 [label=<gini = 0.0<br/>samples = 4<br/>value = [0, 0, 0, 4, 0, 0, 0, 0, 0, 0, 0, 0, 0, 0, 0<br/>0, 0, 0, 0, 0, 0, 0, 0]<br/>class = 75000-100000>, fillcolor="#c5e539ff"] ;
235 -> 236 ;
237 [label=<CentralAir &le; 0.5<br/>gini = 0.444<br/>samples = 3<br/>value = [0, 0, 1, 2, 0, 0, 0, 0, 0, 0, 0, 0, 0, 0, 0<br/>0, 0, 0, 0, 0, 0, 0, 0]<br/>class = 75000-100000>, fillcolor="#c5e5397f"] ;
235 -> 237 ;
238 [label=<gini = 0.0<br/>samples = 1<br/>value = [0, 0, 0, 1, 0, 0, 0, 0, 0, 0, 0, 0, 0, 0, 0<br/>0, 0, 0, 0, 0, 0, 0, 0]<br/>class = 75000-100000>, fillcolor="#c5e539ff"] ;
237 -> 238 ;
239 [label=<OverallCond &le; 3.5<br/>gini = 0.5<br/>samples = 2<br/>value = [0, 0, 1, 1, 0, 0, 0, 0, 0, 0, 0, 0, 0, 0, 0<br/>0, 0, 0, 0, 0, 0, 0, 0]<br/>class = 50000-75000>, fillcolor="#e5da3900"] ;
237 -> 239 ;
240 [label=<gini = 0.0<br/>samples = 1<br/>value = [0, 0, 0, 1, 0, 0, 0, 0, 0, 0, 0, 0, 0, 0, 0<br/>0, 0, 0, 0, 0, 0, 0, 0]<br/>class = 75000-100000>, fillcolor="#c5e539ff"] ;
239 -> 240 ;
241 [label=<gini = 0.0<br/>samples = 1<br/>value = [0, 0, 1, 0, 0, 0, 0, 0, 0, 0, 0, 0, 0, 0, 0<br/>0, 0, 0, 0, 0, 0, 0, 0]<br/>class = 50000-75000>, fillcolor="#e5da39ff"] ;
239 -> 241 ;
242 [label=<gini = 0.0<br/>samples = 1<br/>value = [0, 0, 1, 0, 0, 0, 0, 0, 0, 0, 0, 0, 0, 0, 0<br/>0, 0, 0, 0, 0, 0, 0, 0]<br/>class = 50000-75000>, fillcolor="#e5da39ff"] ;
234 -> 242 ;
243 [label=<YearBuilt &le; 59.0<br/>gini = 0.542<br/>samples = 12<br/>value = [0, 1, 0, 4, 7, 0, 0, 0, 0, 0, 0, 0, 0, 0, 0<br/>0, 0, 0, 0, 0, 0, 0, 0]<br/>class = 100000-125000>, fillcolor="#98e53960"] ;
231 -> 243 ;
244 [label=<YearBuilt &le; 53.5<br/>gini = 0.571<br/>samples = 7<br/>value = [0, 1, 0, 4, 2, 0, 0, 0, 0, 0, 0, 0, 0, 0, 0<br/>0, 0, 0, 0, 0, 0, 0, 0]<br/>class = 75000-100000>, fillcolor="#c5e53966"] ;
243 -> 244 ;
245 [label=<Neighborhood &le; 12.5<br/>gini = 0.625<br/>samples = 4<br/>value = [0, 1, 0, 1, 2, 0, 0, 0, 0, 0, 0, 0, 0, 0, 0<br/>0, 0, 0, 0, 0, 0, 0, 0]<br/>class = 100000-125000>, fillcolor="#98e53955"] ;
244 -> 245 ;
246 [label=<gini = 0.0<br/>samples = 2<br/>value = [0, 0, 0, 0, 2, 0, 0, 0, 0, 0, 0, 0, 0, 0, 0<br/>0, 0, 0, 0, 0, 0, 0, 0]<br/>class = 100000-125000>, fillcolor="#98e539ff"] ;
245 -> 246 ;
247 [label=<HouseStyle &le; 1.0<br/>gini = 0.5<br/>samples = 2<br/>value = [0, 1, 0, 1, 0, 0, 0, 0, 0, 0, 0, 0, 0, 0, 0<br/>0, 0, 0, 0, 0, 0, 0, 0]<br/>class = 25000-50000>, fillcolor="#e5ac3900"] ;
245 -> 247 ;
248 [label=<gini = 0.0<br/>samples = 1<br/>value = [0, 0, 0, 1, 0, 0, 0, 0, 0, 0, 0, 0, 0, 0, 0<br/>0, 0, 0, 0, 0, 0, 0, 0]<br/>class = 75000-100000>, fillcolor="#c5e539ff"] ;
247 -> 248 ;
249 [label=<gini = 0.0<br/>samples = 1<br/>value = [0, 1, 0, 0, 0, 0, 0, 0, 0, 0, 0, 0, 0, 0, 0<br/>0, 0, 0, 0, 0, 0, 0, 0]<br/>class = 25000-50000>, fillcolor="#e5ac39ff"] ;
247 -> 249 ;
250 [label=<gini = 0.0<br/>samples = 3<br/>value = [0, 0, 0, 3, 0, 0, 0, 0, 0, 0, 0, 0, 0, 0, 0<br/>0, 0, 0, 0, 0, 0, 0, 0]<br/>class = 75000-100000>, fillcolor="#c5e539ff"] ;
244 -> 250 ;
251 [label=<gini = 0.0<br/>samples = 5<br/>value = [0, 0, 0, 0, 5, 0, 0, 0, 0, 0, 0, 0, 0, 0, 0<br/>0, 0, 0, 0, 0, 0, 0, 0]<br/>class = 100000-125000>, fillcolor="#98e539ff"] ;
243 -> 251 ;
252 [label=<LotArea &le; 873.5<br/>gini = 0.649<br/>samples = 97<br/>value = [0, 0, 3, 16, 50, 23, 2, 2, 1, 0, 0, 0, 0, 0<br/>0, 0, 0, 0, 0, 0, 0, 0, 0]<br/>class = 100000-125000>, fillcolor="#98e5395d"] ;
230 -> 252 ;
253 [label=<HouseStyle &le; 1.0<br/>gini = 0.63<br/>samples = 84<br/>value = [0, 0, 3, 15, 46, 16, 2, 1, 1, 0, 0, 0, 0, 0<br/>0, 0, 0, 0, 0, 0, 0, 0, 0]<br/>class = 100000-125000>, fillcolor="#98e53971"] ;
252 -> 253 ;
254 [label=<ExterCond &le; 3.0<br/>gini = 0.612<br/>samples = 7<br/>value = [0, 0, 0, 3, 1, 3, 0, 0, 0, 0, 0, 0, 0, 0, 0<br/>0, 0, 0, 0, 0, 0, 0, 0]<br/>class = 75000-100000>, fillcolor="#c5e53900"] ;
253 -> 254 ;
255 [label=<gini = 0.0<br/>samples = 2<br/>value = [0, 0, 0, 0, 0, 2, 0, 0, 0, 0, 0, 0, 0, 0, 0<br/>0, 0, 0, 0, 0, 0, 0, 0]<br/>class = 125000-150000>, fillcolor="#6ae539ff"] ;
254 -> 255 ;
256 [label=<YearBuilt &le; 21.0<br/>gini = 0.56<br/>samples = 5<br/>value = [0, 0, 0, 3, 1, 1, 0, 0, 0, 0, 0, 0, 0, 0, 0<br/>0, 0, 0, 0, 0, 0, 0, 0]<br/>class = 75000-100000>, fillcolor="#c5e5397f"] ;
254 -> 256 ;
257 [label=<LotArea &le; 529.5<br/>gini = 0.5<br/>samples = 2<br/>value = [0, 0, 0, 0, 1, 1, 0, 0, 0, 0, 0, 0, 0, 0, 0<br/>0, 0, 0, 0, 0, 0, 0, 0]<br/>class = 100000-125000>, fillcolor="#98e53900"] ;
256 -> 257 ;
258 [label=<gini = 0.0<br/>samples = 1<br/>value = [0, 0, 0, 0, 1, 0, 0, 0, 0, 0, 0, 0, 0, 0, 0<br/>0, 0, 0, 0, 0, 0, 0, 0]<br/>class = 100000-125000>, fillcolor="#98e539ff"] ;
257 -> 258 ;
259 [label=<gini = 0.0<br/>samples = 1<br/>value = [0, 0, 0, 0, 0, 1, 0, 0, 0, 0, 0, 0, 0, 0, 0<br/>0, 0, 0, 0, 0, 0, 0, 0]<br/>class = 125000-150000>, fillcolor="#6ae539ff"] ;
257 -> 259 ;
260 [label=<gini = 0.0<br/>samples = 3<br/>value = [0, 0, 0, 3, 0, 0, 0, 0, 0, 0, 0, 0, 0, 0, 0<br/>0, 0, 0, 0, 0, 0, 0, 0]<br/>class = 75000-100000>, fillcolor="#c5e539ff"] ;
256 -> 260 ;
261 [label=<Neighborhood &le; 6.5<br/>gini = 0.603<br/>samples = 77<br/>value = [0, 0, 3, 12, 45, 13, 2, 1, 1, 0, 0, 0, 0, 0<br/>0, 0, 0, 0, 0, 0, 0, 0, 0]<br/>class = 100000-125000>, fillcolor="#98e5397f"] ;
253 -> 261 ;
262 [label=<gini = 0.0<br/>samples = 8<br/>value = [0, 0, 0, 0, 8, 0, 0, 0, 0, 0, 0, 0, 0, 0, 0<br/>0, 0, 0, 0, 0, 0, 0, 0]<br/>class = 100000-125000>, fillcolor="#98e539ff"] ;
261 -> 262 ;
263 [label=<Neighborhood &le; 11.5<br/>gini = 0.644<br/>samples = 69<br/>value = [0, 0, 3, 12, 37, 13, 2, 1, 1, 0, 0, 0, 0, 0<br/>0, 0, 0, 0, 0, 0, 0, 0, 0]<br/>class = 100000-125000>, fillcolor="#98e5396d"] ;
261 -> 263 ;
264 [label=<MSSubClass &le; 5.5<br/>gini = 0.716<br/>samples = 9<br/>value = [0, 0, 2, 4, 1, 1, 0, 0, 1, 0, 0, 0, 0, 0, 0<br/>0, 0, 0, 0, 0, 0, 0, 0]<br/>class = 75000-100000>, fillcolor="#c5e53949"] ;
263 -> 264 ;
265 [label=<YearBuilt &le; 60.5<br/>gini = 0.778<br/>samples = 6<br/>value = [0, 0, 2, 1, 1, 1, 0, 0, 1, 0, 0, 0, 0, 0, 0<br/>0, 0, 0, 0, 0, 0, 0, 0]<br/>class = 50000-75000>, fillcolor="#e5da3933"] ;
264 -> 265 ;
266 [label=<ExterCond &le; 3.0<br/>gini = 0.444<br/>samples = 3<br/>value = [0, 0, 2, 0, 0, 0, 0, 0, 1, 0, 0, 0, 0, 0, 0<br/>0, 0, 0, 0, 0, 0, 0, 0]<br/>class = 50000-75000>, fillcolor="#e5da397f"] ;
265 -> 266 ;
267 [label=<gini = 0.0<br/>samples = 1<br/>value = [0, 0, 0, 0, 0, 0, 0, 0, 1, 0, 0, 0, 0, 0, 0<br/>0, 0, 0, 0, 0, 0, 0, 0]<br/>class = 200000-225000>, fillcolor="#39e58fff"] ;
266 -> 267 ;
268 [label=<gini = 0.0<br/>samples = 2<br/>value = [0, 0, 2, 0, 0, 0, 0, 0, 0, 0, 0, 0, 0, 0, 0<br/>0, 0, 0, 0, 0, 0, 0, 0]<br/>class = 50000-75000>, fillcolor="#e5da39ff"] ;
266 -> 268 ;
269 [label=<LotFrontage &le; 46.5<br/>gini = 0.667<br/>samples = 3<br/>value = [0, 0, 0, 1, 1, 1, 0, 0, 0, 0, 0, 0, 0, 0, 0<br/>0, 0, 0, 0, 0, 0, 0, 0]<br/>class = 75000-100000>, fillcolor="#c5e53900"] ;
265 -> 269 ;
270 [label=<gini = 0.0<br/>samples = 1<br/>value = [0, 0, 0, 0, 1, 0, 0, 0, 0, 0, 0, 0, 0, 0, 0<br/>0, 0, 0, 0, 0, 0, 0, 0]<br/>class = 100000-125000>, fillcolor="#98e539ff"] ;
269 -> 270 ;
271 [label=<LotArea &le; 429.0<br/>gini = 0.5<br/>samples = 2<br/>value = [0, 0, 0, 1, 0, 1, 0, 0, 0, 0, 0, 0, 0, 0, 0<br/>0, 0, 0, 0, 0, 0, 0, 0]<br/>class = 75000-100000>, fillcolor="#c5e53900"] ;
269 -> 271 ;
272 [label=<gini = 0.0<br/>samples = 1<br/>value = [0, 0, 0, 1, 0, 0, 0, 0, 0, 0, 0, 0, 0, 0, 0<br/>0, 0, 0, 0, 0, 0, 0, 0]<br/>class = 75000-100000>, fillcolor="#c5e539ff"] ;
271 -> 272 ;
273 [label=<gini = 0.0<br/>samples = 1<br/>value = [0, 0, 0, 0, 0, 1, 0, 0, 0, 0, 0, 0, 0, 0, 0<br/>0, 0, 0, 0, 0, 0, 0, 0]<br/>class = 125000-150000>, fillcolor="#6ae539ff"] ;
271 -> 273 ;
274 [label=<gini = 0.0<br/>samples = 3<br/>value = [0, 0, 0, 3, 0, 0, 0, 0, 0, 0, 0, 0, 0, 0, 0<br/>0, 0, 0, 0, 0, 0, 0, 0]<br/>class = 75000-100000>, fillcolor="#c5e539ff"] ;
264 -> 274 ;
275 [label=<MSSubClass &le; 7.5<br/>gini = 0.581<br/>samples = 60<br/>value = [0, 0, 1, 8, 36, 12, 2, 1, 0, 0, 0, 0, 0, 0<br/>0, 0, 0, 0, 0, 0, 0, 0, 0]<br/>class = 100000-125000>, fillcolor="#98e5397f"] ;
263 -> 275 ;
276 [label=<LotFrontage &le; 40.5<br/>gini = 0.632<br/>samples = 47<br/>value = [0, 0, 1, 8, 25, 11, 1, 1, 0, 0, 0, 0, 0, 0<br/>0, 0, 0, 0, 0, 0, 0, 0, 0]<br/>class = 100000-125000>, fillcolor="#98e53963"] ;
275 -> 276 ;
277 [label=<gini = 0.0<br/>samples = 2<br/>value = [0, 0, 0, 0, 0, 2, 0, 0, 0, 0, 0, 0, 0, 0, 0<br/>0, 0, 0, 0, 0, 0, 0, 0]<br/>class = 125000-150000>, fillcolor="#6ae539ff"] ;
276 -> 277 ;
278 [label=<Neighborhood &le; 18.0<br/>gini = 0.618<br/>samples = 45<br/>value = [0, 0, 1, 8, 25, 9, 1, 1, 0, 0, 0, 0, 0, 0<br/>0, 0, 0, 0, 0, 0, 0, 0, 0]<br/>class = 100000-125000>, fillcolor="#98e53971"] ;
276 -> 278 ;
279 [label=<YearBuilt &le; 59.5<br/>gini = 0.637<br/>samples = 36<br/>value = [0, 0, 1, 8, 18, 9, 0, 0, 0, 0, 0, 0, 0, 0<br/>0, 0, 0, 0, 0, 0, 0, 0, 0]<br/>class = 100000-125000>, fillcolor="#98e53955"] ;
278 -> 279 ;
280 [label=<LotArea &le; 415.5<br/>gini = 0.545<br/>samples = 20<br/>value = [0, 0, 1, 6, 12, 1, 0, 0, 0, 0, 0, 0, 0, 0<br/>0, 0, 0, 0, 0, 0, 0, 0, 0]<br/>class = 100000-125000>, fillcolor="#98e5396d"] ;
279 -> 280 ;
281 [label=<YearBuilt &le; 56.0<br/>gini = 0.58<br/>samples = 10<br/>value = [0, 0, 0, 5, 4, 1, 0, 0, 0, 0, 0, 0, 0, 0, 0<br/>0, 0, 0, 0, 0, 0, 0, 0]<br/>class = 75000-100000>, fillcolor="#c5e5392a"] ;
280 -> 281 ;
282 [label=<LotFrontage &le; 45.5<br/>gini = 0.32<br/>samples = 5<br/>value = [0, 0, 0, 4, 0, 1, 0, 0, 0, 0, 0, 0, 0, 0, 0<br/>0, 0, 0, 0, 0, 0, 0, 0]<br/>class = 75000-100000>, fillcolor="#c5e539bf"] ;
281 -> 282 ;
283 [label=<LotArea &le; 367.0<br/>gini = 0.5<br/>samples = 2<br/>value = [0, 0, 0, 1, 0, 1, 0, 0, 0, 0, 0, 0, 0, 0, 0<br/>0, 0, 0, 0, 0, 0, 0, 0]<br/>class = 75000-100000>, fillcolor="#c5e53900"] ;
282 -> 283 ;
284 [label=<gini = 0.0<br/>samples = 1<br/>value = [0, 0, 0, 0, 0, 1, 0, 0, 0, 0, 0, 0, 0, 0, 0<br/>0, 0, 0, 0, 0, 0, 0, 0]<br/>class = 125000-150000>, fillcolor="#6ae539ff"] ;
283 -> 284 ;
285 [label=<gini = 0.0<br/>samples = 1<br/>value = [0, 0, 0, 1, 0, 0, 0, 0, 0, 0, 0, 0, 0, 0, 0<br/>0, 0, 0, 0, 0, 0, 0, 0]<br/>class = 75000-100000>, fillcolor="#c5e539ff"] ;
283 -> 285 ;
286 [label=<gini = 0.0<br/>samples = 3<br/>value = [0, 0, 0, 3, 0, 0, 0, 0, 0, 0, 0, 0, 0, 0, 0<br/>0, 0, 0, 0, 0, 0, 0, 0]<br/>class = 75000-100000>, fillcolor="#c5e539ff"] ;
282 -> 286 ;
287 [label=<YearBuilt &le; 58.5<br/>gini = 0.32<br/>samples = 5<br/>value = [0, 0, 0, 1, 4, 0, 0, 0, 0, 0, 0, 0, 0, 0, 0<br/>0, 0, 0, 0, 0, 0, 0, 0]<br/>class = 100000-125000>, fillcolor="#98e539bf"] ;
281 -> 287 ;
288 [label=<gini = 0.0<br/>samples = 3<br/>value = [0, 0, 0, 0, 3, 0, 0, 0, 0, 0, 0, 0, 0, 0, 0<br/>0, 0, 0, 0, 0, 0, 0, 0]<br/>class = 100000-125000>, fillcolor="#98e539ff"] ;
287 -> 288 ;
289 [label=<LotArea &le; 262.5<br/>gini = 0.5<br/>samples = 2<br/>value = [0, 0, 0, 1, 1, 0, 0, 0, 0, 0, 0, 0, 0, 0, 0<br/>0, 0, 0, 0, 0, 0, 0, 0]<br/>class = 75000-100000>, fillcolor="#c5e53900"] ;
287 -> 289 ;
290 [label=<gini = 0.0<br/>samples = 1<br/>value = [0, 0, 0, 1, 0, 0, 0, 0, 0, 0, 0, 0, 0, 0, 0<br/>0, 0, 0, 0, 0, 0, 0, 0]<br/>class = 75000-100000>, fillcolor="#c5e539ff"] ;
289 -> 290 ;
291 [label=<gini = 0.0<br/>samples = 1<br/>value = [0, 0, 0, 0, 1, 0, 0, 0, 0, 0, 0, 0, 0, 0, 0<br/>0, 0, 0, 0, 0, 0, 0, 0]<br/>class = 100000-125000>, fillcolor="#98e539ff"] ;
289 -> 291 ;
292 [label=<LotArea &le; 807.0<br/>gini = 0.34<br/>samples = 10<br/>value = [0, 0, 1, 1, 8, 0, 0, 0, 0, 0, 0, 0, 0, 0, 0<br/>0, 0, 0, 0, 0, 0, 0, 0]<br/>class = 100000-125000>, fillcolor="#98e539c6"] ;
280 -> 292 ;
293 [label=<LotFrontage &le; 50.5<br/>gini = 0.198<br/>samples = 9<br/>value = [0, 0, 0, 1, 8, 0, 0, 0, 0, 0, 0, 0, 0, 0, 0<br/>0, 0, 0, 0, 0, 0, 0, 0]<br/>class = 100000-125000>, fillcolor="#98e539df"] ;
292 -> 293 ;
294 [label=<LotFrontage &le; 46.5<br/>gini = 0.444<br/>samples = 3<br/>value = [0, 0, 0, 1, 2, 0, 0, 0, 0, 0, 0, 0, 0, 0, 0<br/>0, 0, 0, 0, 0, 0, 0, 0]<br/>class = 100000-125000>, fillcolor="#98e5397f"] ;
293 -> 294 ;
295 [label=<gini = 0.0<br/>samples = 2<br/>value = [0, 0, 0, 0, 2, 0, 0, 0, 0, 0, 0, 0, 0, 0, 0<br/>0, 0, 0, 0, 0, 0, 0, 0]<br/>class = 100000-125000>, fillcolor="#98e539ff"] ;
294 -> 295 ;
296 [label=<gini = 0.0<br/>samples = 1<br/>value = [0, 0, 0, 1, 0, 0, 0, 0, 0, 0, 0, 0, 0, 0, 0<br/>0, 0, 0, 0, 0, 0, 0, 0]<br/>class = 75000-100000>, fillcolor="#c5e539ff"] ;
294 -> 296 ;
297 [label=<gini = 0.0<br/>samples = 6<br/>value = [0, 0, 0, 0, 6, 0, 0, 0, 0, 0, 0, 0, 0, 0, 0<br/>0, 0, 0, 0, 0, 0, 0, 0]<br/>class = 100000-125000>, fillcolor="#98e539ff"] ;
293 -> 297 ;
298 [label=<gini = 0.0<br/>samples = 1<br/>value = [0, 0, 1, 0, 0, 0, 0, 0, 0, 0, 0, 0, 0, 0, 0<br/>0, 0, 0, 0, 0, 0, 0, 0]<br/>class = 50000-75000>, fillcolor="#e5da39ff"] ;
292 -> 298 ;
299 [label=<LotFrontage &le; 43.0<br/>gini = 0.594<br/>samples = 16<br/>value = [0, 0, 0, 2, 6, 8, 0, 0, 0, 0, 0, 0, 0, 0, 0<br/>0, 0, 0, 0, 0, 0, 0, 0]<br/>class = 125000-150000>, fillcolor="#6ae53933"] ;
279 -> 299 ;
300 [label=<OverallCond &le; 4.5<br/>gini = 0.593<br/>samples = 9<br/>value = [0, 0, 0, 2, 5, 2, 0, 0, 0, 0, 0, 0, 0, 0, 0<br/>0, 0, 0, 0, 0, 0, 0, 0]<br/>class = 100000-125000>, fillcolor="#98e5396d"] ;
299 -> 300 ;
301 [label=<YearBuilt &le; 62.5<br/>gini = 0.667<br/>samples = 6<br/>value = [0, 0, 0, 2, 2, 2, 0, 0, 0, 0, 0, 0, 0, 0, 0<br/>0, 0, 0, 0, 0, 0, 0, 0]<br/>class = 75000-100000>, fillcolor="#c5e53900"] ;
300 -> 301 ;
302 [label=<gini = 0.0<br/>samples = 2<br/>value = [0, 0, 0, 0, 0, 2, 0, 0, 0, 0, 0, 0, 0, 0, 0<br/>0, 0, 0, 0, 0, 0, 0, 0]<br/>class = 125000-150000>, fillcolor="#6ae539ff"] ;
301 -> 302 ;
303 [label=<YearBuilt &le; 67.5<br/>gini = 0.5<br/>samples = 4<br/>value = [0, 0, 0, 2, 2, 0, 0, 0, 0, 0, 0, 0, 0, 0, 0<br/>0, 0, 0, 0, 0, 0, 0, 0]<br/>class = 75000-100000>, fillcolor="#c5e53900"] ;
301 -> 303 ;
304 [label=<gini = 0.0<br/>samples = 2<br/>value = [0, 0, 0, 2, 0, 0, 0, 0, 0, 0, 0, 0, 0, 0, 0<br/>0, 0, 0, 0, 0, 0, 0, 0]<br/>class = 75000-100000>, fillcolor="#c5e539ff"] ;
303 -> 304 ;
305 [label=<gini = 0.0<br/>samples = 2<br/>value = [0, 0, 0, 0, 2, 0, 0, 0, 0, 0, 0, 0, 0, 0, 0<br/>0, 0, 0, 0, 0, 0, 0, 0]<br/>class = 100000-125000>, fillcolor="#98e539ff"] ;
303 -> 305 ;
306 [label=<gini = 0.0<br/>samples = 3<br/>value = [0, 0, 0, 0, 3, 0, 0, 0, 0, 0, 0, 0, 0, 0, 0<br/>0, 0, 0, 0, 0, 0, 0, 0]<br/>class = 100000-125000>, fillcolor="#98e539ff"] ;
300 -> 306 ;
307 [label=<OverallCond &le; 3.5<br/>gini = 0.245<br/>samples = 7<br/>value = [0, 0, 0, 0, 1, 6, 0, 0, 0, 0, 0, 0, 0, 0, 0<br/>0, 0, 0, 0, 0, 0, 0, 0]<br/>class = 125000-150000>, fillcolor="#6ae539d4"] ;
299 -> 307 ;
308 [label=<LotArea &le; 422.0<br/>gini = 0.444<br/>samples = 3<br/>value = [0, 0, 0, 0, 1, 2, 0, 0, 0, 0, 0, 0, 0, 0, 0<br/>0, 0, 0, 0, 0, 0, 0, 0]<br/>class = 125000-150000>, fillcolor="#6ae5397f"] ;
307 -> 308 ;
309 [label=<gini = 0.0<br/>samples = 1<br/>value = [0, 0, 0, 0, 1, 0, 0, 0, 0, 0, 0, 0, 0, 0, 0<br/>0, 0, 0, 0, 0, 0, 0, 0]<br/>class = 100000-125000>, fillcolor="#98e539ff"] ;
308 -> 309 ;
310 [label=<gini = 0.0<br/>samples = 2<br/>value = [0, 0, 0, 0, 0, 2, 0, 0, 0, 0, 0, 0, 0, 0, 0<br/>0, 0, 0, 0, 0, 0, 0, 0]<br/>class = 125000-150000>, fillcolor="#6ae539ff"] ;
308 -> 310 ;
311 [label=<gini = 0.0<br/>samples = 4<br/>value = [0, 0, 0, 0, 0, 4, 0, 0, 0, 0, 0, 0, 0, 0, 0<br/>0, 0, 0, 0, 0, 0, 0, 0]<br/>class = 125000-150000>, fillcolor="#6ae539ff"] ;
307 -> 311 ;
312 [label=<Neighborhood &le; 21.5<br/>gini = 0.37<br/>samples = 9<br/>value = [0, 0, 0, 0, 7, 0, 1, 1, 0, 0, 0, 0, 0, 0, 0<br/>0, 0, 0, 0, 0, 0, 0, 0]<br/>class = 100000-125000>, fillcolor="#98e539bf"] ;
278 -> 312 ;
313 [label=<LotArea &le; 483.5<br/>gini = 0.219<br/>samples = 8<br/>value = [0, 0, 0, 0, 7, 0, 1, 0, 0, 0, 0, 0, 0, 0, 0<br/>0, 0, 0, 0, 0, 0, 0, 0]<br/>class = 100000-125000>, fillcolor="#98e539db"] ;
312 -> 313 ;
314 [label=<gini = 0.0<br/>samples = 5<br/>value = [0, 0, 0, 0, 5, 0, 0, 0, 0, 0, 0, 0, 0, 0, 0<br/>0, 0, 0, 0, 0, 0, 0, 0]<br/>class = 100000-125000>, fillcolor="#98e539ff"] ;
313 -> 314 ;
315 [label=<LotArea &le; 639.0<br/>gini = 0.444<br/>samples = 3<br/>value = [0, 0, 0, 0, 2, 0, 1, 0, 0, 0, 0, 0, 0, 0, 0<br/>0, 0, 0, 0, 0, 0, 0, 0]<br/>class = 100000-125000>, fillcolor="#98e5397f"] ;
313 -> 315 ;
316 [label=<gini = 0.0<br/>samples = 1<br/>value = [0, 0, 0, 0, 0, 0, 1, 0, 0, 0, 0, 0, 0, 0, 0<br/>0, 0, 0, 0, 0, 0, 0, 0]<br/>class = 150000-175000>, fillcolor="#3fe539ff"] ;
315 -> 316 ;
317 [label=<gini = 0.0<br/>samples = 2<br/>value = [0, 0, 0, 0, 2, 0, 0, 0, 0, 0, 0, 0, 0, 0, 0<br/>0, 0, 0, 0, 0, 0, 0, 0]<br/>class = 100000-125000>, fillcolor="#98e539ff"] ;
315 -> 317 ;
318 [label=<gini = 0.0<br/>samples = 1<br/>value = [0, 0, 0, 0, 0, 0, 0, 1, 0, 0, 0, 0, 0, 0, 0<br/>0, 0, 0, 0, 0, 0, 0, 0]<br/>class = 175000-200000>, fillcolor="#39e561ff"] ;
312 -> 318 ;
319 [label=<LotArea &le; 793.5<br/>gini = 0.272<br/>samples = 13<br/>value = [0, 0, 0, 0, 11, 1, 1, 0, 0, 0, 0, 0, 0, 0<br/>0, 0, 0, 0, 0, 0, 0, 0, 0]<br/>class = 100000-125000>, fillcolor="#98e539d4"] ;
275 -> 319 ;
320 [label=<LotArea &le; 725.5<br/>gini = 0.153<br/>samples = 12<br/>value = [0, 0, 0, 0, 11, 1, 0, 0, 0, 0, 0, 0, 0, 0<br/>0, 0, 0, 0, 0, 0, 0, 0, 0]<br/>class = 100000-125000>, fillcolor="#98e539e8"] ;
319 -> 320 ;
321 [label=<gini = 0.0<br/>samples = 10<br/>value = [0, 0, 0, 0, 10, 0, 0, 0, 0, 0, 0, 0, 0, 0<br/>0, 0, 0, 0, 0, 0, 0, 0, 0]<br/>class = 100000-125000>, fillcolor="#98e539ff"] ;
320 -> 321 ;
322 [label=<LotFrontage &le; 48.5<br/>gini = 0.5<br/>samples = 2<br/>value = [0, 0, 0, 0, 1, 1, 0, 0, 0, 0, 0, 0, 0, 0, 0<br/>0, 0, 0, 0, 0, 0, 0, 0]<br/>class = 100000-125000>, fillcolor="#98e53900"] ;
320 -> 322 ;
323 [label=<gini = 0.0<br/>samples = 1<br/>value = [0, 0, 0, 0, 1, 0, 0, 0, 0, 0, 0, 0, 0, 0, 0<br/>0, 0, 0, 0, 0, 0, 0, 0]<br/>class = 100000-125000>, fillcolor="#98e539ff"] ;
322 -> 323 ;
324 [label=<gini = 0.0<br/>samples = 1<br/>value = [0, 0, 0, 0, 0, 1, 0, 0, 0, 0, 0, 0, 0, 0, 0<br/>0, 0, 0, 0, 0, 0, 0, 0]<br/>class = 125000-150000>, fillcolor="#6ae539ff"] ;
322 -> 324 ;
325 [label=<gini = 0.0<br/>samples = 1<br/>value = [0, 0, 0, 0, 0, 0, 1, 0, 0, 0, 0, 0, 0, 0, 0<br/>0, 0, 0, 0, 0, 0, 0, 0]<br/>class = 150000-175000>, fillcolor="#3fe539ff"] ;
319 -> 325 ;
326 [label=<LotArea &le; 1003.5<br/>gini = 0.604<br/>samples = 13<br/>value = [0, 0, 0, 1, 4, 7, 0, 1, 0, 0, 0, 0, 0, 0, 0<br/>0, 0, 0, 0, 0, 0, 0, 0]<br/>class = 125000-150000>, fillcolor="#6ae53955"] ;
252 -> 326 ;
327 [label=<gini = 0.0<br/>samples = 6<br/>value = [0, 0, 0, 0, 0, 6, 0, 0, 0, 0, 0, 0, 0, 0, 0<br/>0, 0, 0, 0, 0, 0, 0, 0]<br/>class = 125000-150000>, fillcolor="#6ae539ff"] ;
326 -> 327 ;
328 [label=<OverallCond &le; 3.5<br/>gini = 0.612<br/>samples = 7<br/>value = [0, 0, 0, 1, 4, 1, 0, 1, 0, 0, 0, 0, 0, 0, 0<br/>0, 0, 0, 0, 0, 0, 0, 0]<br/>class = 100000-125000>, fillcolor="#98e5397f"] ;
326 -> 328 ;
329 [label=<ExterCond &le; 2.5<br/>gini = 0.5<br/>samples = 6<br/>value = [0, 0, 0, 1, 4, 1, 0, 0, 0, 0, 0, 0, 0, 0, 0<br/>0, 0, 0, 0, 0, 0, 0, 0]<br/>class = 100000-125000>, fillcolor="#98e53999"] ;
328 -> 329 ;
330 [label=<gini = 0.0<br/>samples = 1<br/>value = [0, 0, 0, 1, 0, 0, 0, 0, 0, 0, 0, 0, 0, 0, 0<br/>0, 0, 0, 0, 0, 0, 0, 0]<br/>class = 75000-100000>, fillcolor="#c5e539ff"] ;
329 -> 330 ;
331 [label=<Neighborhood &le; 15.0<br/>gini = 0.32<br/>samples = 5<br/>value = [0, 0, 0, 0, 4, 1, 0, 0, 0, 0, 0, 0, 0, 0, 0<br/>0, 0, 0, 0, 0, 0, 0, 0]<br/>class = 100000-125000>, fillcolor="#98e539bf"] ;
329 -> 331 ;
332 [label=<gini = 0.0<br/>samples = 3<br/>value = [0, 0, 0, 0, 3, 0, 0, 0, 0, 0, 0, 0, 0, 0, 0<br/>0, 0, 0, 0, 0, 0, 0, 0]<br/>class = 100000-125000>, fillcolor="#98e539ff"] ;
331 -> 332 ;
333 [label=<LotFrontage &le; 79.0<br/>gini = 0.5<br/>samples = 2<br/>value = [0, 0, 0, 0, 1, 1, 0, 0, 0, 0, 0, 0, 0, 0, 0<br/>0, 0, 0, 0, 0, 0, 0, 0]<br/>class = 100000-125000>, fillcolor="#98e53900"] ;
331 -> 333 ;
334 [label=<gini = 0.0<br/>samples = 1<br/>value = [0, 0, 0, 0, 0, 1, 0, 0, 0, 0, 0, 0, 0, 0, 0<br/>0, 0, 0, 0, 0, 0, 0, 0]<br/>class = 125000-150000>, fillcolor="#6ae539ff"] ;
333 -> 334 ;
335 [label=<gini = 0.0<br/>samples = 1<br/>value = [0, 0, 0, 0, 1, 0, 0, 0, 0, 0, 0, 0, 0, 0, 0<br/>0, 0, 0, 0, 0, 0, 0, 0]<br/>class = 100000-125000>, fillcolor="#98e539ff"] ;
333 -> 335 ;
336 [label=<gini = 0.0<br/>samples = 1<br/>value = [0, 0, 0, 0, 0, 0, 0, 1, 0, 0, 0, 0, 0, 0, 0<br/>0, 0, 0, 0, 0, 0, 0, 0]<br/>class = 175000-200000>, fillcolor="#39e561ff"] ;
328 -> 336 ;
337 [label=<LotArea &le; 831.0<br/>gini = 0.811<br/>samples = 113<br/>value = [0, 0, 2, 5, 23, 37, 16, 8, 12, 2, 2, 2, 3, 1<br/>0, 0, 0, 0, 0, 0, 0, 0, 0]<br/>class = 125000-150000>, fillcolor="#6ae53928"] ;
227 -> 337 ;
338 [label=<ExterCond &le; 3.0<br/>gini = 0.734<br/>samples = 86<br/>value = [0, 0, 1, 4, 23, 35, 13, 4, 2, 0, 1, 2, 0, 1<br/>0, 0, 0, 0, 0, 0, 0, 0, 0]<br/>class = 125000-150000>, fillcolor="#6ae53931"] ;
337 -> 338 ;
339 [label=<LotArea &le; 688.0<br/>gini = 0.6<br/>samples = 10<br/>value = [0, 0, 1, 0, 6, 0, 1, 1, 1, 0, 0, 0, 0, 0, 0<br/>0, 0, 0, 0, 0, 0, 0, 0]<br/>class = 100000-125000>, fillcolor="#98e5398e"] ;
338 -> 339 ;
340 [label=<YearBuilt &le; 76.5<br/>gini = 0.245<br/>samples = 7<br/>value = [0, 0, 0, 0, 6, 0, 0, 1, 0, 0, 0, 0, 0, 0, 0<br/>0, 0, 0, 0, 0, 0, 0, 0]<br/>class = 100000-125000>, fillcolor="#98e539d4"] ;
339 -> 340 ;
341 [label=<gini = 0.0<br/>samples = 5<br/>value = [0, 0, 0, 0, 5, 0, 0, 0, 0, 0, 0, 0, 0, 0, 0<br/>0, 0, 0, 0, 0, 0, 0, 0]<br/>class = 100000-125000>, fillcolor="#98e539ff"] ;
340 -> 341 ;
342 [label=<LotArea &le; 506.5<br/>gini = 0.5<br/>samples = 2<br/>value = [0, 0, 0, 0, 1, 0, 0, 1, 0, 0, 0, 0, 0, 0, 0<br/>0, 0, 0, 0, 0, 0, 0, 0]<br/>class = 100000-125000>, fillcolor="#98e53900"] ;
340 -> 342 ;
343 [label=<gini = 0.0<br/>samples = 1<br/>value = [0, 0, 0, 0, 1, 0, 0, 0, 0, 0, 0, 0, 0, 0, 0<br/>0, 0, 0, 0, 0, 0, 0, 0]<br/>class = 100000-125000>, fillcolor="#98e539ff"] ;
342 -> 343 ;
344 [label=<gini = 0.0<br/>samples = 1<br/>value = [0, 0, 0, 0, 0, 0, 0, 1, 0, 0, 0, 0, 0, 0, 0<br/>0, 0, 0, 0, 0, 0, 0, 0]<br/>class = 175000-200000>, fillcolor="#39e561ff"] ;
342 -> 344 ;
345 [label=<LotArea &le; 734.5<br/>gini = 0.667<br/>samples = 3<br/>value = [0, 0, 1, 0, 0, 0, 1, 0, 1, 0, 0, 0, 0, 0, 0<br/>0, 0, 0, 0, 0, 0, 0, 0]<br/>class = 50000-75000>, fillcolor="#e5da3900"] ;
339 -> 345 ;
346 [label=<gini = 0.0<br/>samples = 1<br/>value = [0, 0, 0, 0, 0, 0, 0, 0, 1, 0, 0, 0, 0, 0, 0<br/>0, 0, 0, 0, 0, 0, 0, 0]<br/>class = 200000-225000>, fillcolor="#39e58fff"] ;
345 -> 346 ;
347 [label=<LotArea &le; 773.5<br/>gini = 0.5<br/>samples = 2<br/>value = [0, 0, 1, 0, 0, 0, 1, 0, 0, 0, 0, 0, 0, 0, 0<br/>0, 0, 0, 0, 0, 0, 0, 0]<br/>class = 50000-75000>, fillcolor="#e5da3900"] ;
345 -> 347 ;
348 [label=<gini = 0.0<br/>samples = 1<br/>value = [0, 0, 1, 0, 0, 0, 0, 0, 0, 0, 0, 0, 0, 0, 0<br/>0, 0, 0, 0, 0, 0, 0, 0]<br/>class = 50000-75000>, fillcolor="#e5da39ff"] ;
347 -> 348 ;
349 [label=<gini = 0.0<br/>samples = 1<br/>value = [0, 0, 0, 0, 0, 0, 1, 0, 0, 0, 0, 0, 0, 0, 0<br/>0, 0, 0, 0, 0, 0, 0, 0]<br/>class = 150000-175000>, fillcolor="#3fe539ff"] ;
347 -> 349 ;
350 [label=<LotArea &le; 314.0<br/>gini = 0.707<br/>samples = 76<br/>value = [0, 0, 0, 4, 17, 35, 12, 3, 1, 0, 1, 2, 0, 1<br/>0, 0, 0, 0, 0, 0, 0, 0, 0]<br/>class = 125000-150000>, fillcolor="#6ae5394e"] ;
338 -> 350 ;
351 [label=<LotFrontage &le; 58.0<br/>gini = 0.568<br/>samples = 9<br/>value = [0, 0, 0, 3, 5, 1, 0, 0, 0, 0, 0, 0, 0, 0, 0<br/>0, 0, 0, 0, 0, 0, 0, 0]<br/>class = 100000-125000>, fillcolor="#98e53955"] ;
350 -> 351 ;
352 [label=<LotFrontage &le; 41.5<br/>gini = 0.449<br/>samples = 7<br/>value = [0, 0, 0, 1, 5, 1, 0, 0, 0, 0, 0, 0, 0, 0, 0<br/>0, 0, 0, 0, 0, 0, 0, 0]<br/>class = 100000-125000>, fillcolor="#98e539aa"] ;
351 -> 352 ;
353 [label=<LotFrontage &le; 40.5<br/>gini = 0.5<br/>samples = 2<br/>value = [0, 0, 0, 1, 0, 1, 0, 0, 0, 0, 0, 0, 0, 0, 0<br/>0, 0, 0, 0, 0, 0, 0, 0]<br/>class = 75000-100000>, fillcolor="#c5e53900"] ;
352 -> 353 ;
354 [label=<gini = 0.0<br/>samples = 1<br/>value = [0, 0, 0, 0, 0, 1, 0, 0, 0, 0, 0, 0, 0, 0, 0<br/>0, 0, 0, 0, 0, 0, 0, 0]<br/>class = 125000-150000>, fillcolor="#6ae539ff"] ;
353 -> 354 ;
355 [label=<gini = 0.0<br/>samples = 1<br/>value = [0, 0, 0, 1, 0, 0, 0, 0, 0, 0, 0, 0, 0, 0, 0<br/>0, 0, 0, 0, 0, 0, 0, 0]<br/>class = 75000-100000>, fillcolor="#c5e539ff"] ;
353 -> 355 ;
356 [label=<gini = 0.0<br/>samples = 5<br/>value = [0, 0, 0, 0, 5, 0, 0, 0, 0, 0, 0, 0, 0, 0, 0<br/>0, 0, 0, 0, 0, 0, 0, 0]<br/>class = 100000-125000>, fillcolor="#98e539ff"] ;
352 -> 356 ;
357 [label=<gini = 0.0<br/>samples = 2<br/>value = [0, 0, 0, 2, 0, 0, 0, 0, 0, 0, 0, 0, 0, 0, 0<br/>0, 0, 0, 0, 0, 0, 0, 0]<br/>class = 75000-100000>, fillcolor="#c5e539ff"] ;
351 -> 357 ;
358 [label=<YearBuilt &le; 61.5<br/>gini = 0.675<br/>samples = 67<br/>value = [0, 0, 0, 1, 12, 34, 12, 3, 1, 0, 1, 2, 0, 1<br/>0, 0, 0, 0, 0, 0, 0, 0, 0]<br/>class = 125000-150000>, fillcolor="#6ae53966"] ;
350 -> 358 ;
359 [label=<YearBuilt &le; 40.0<br/>gini = 0.666<br/>samples = 26<br/>value = [0, 0, 0, 1, 10, 11, 1, 1, 0, 0, 0, 1, 0, 1<br/>0, 0, 0, 0, 0, 0, 0, 0, 0]<br/>class = 125000-150000>, fillcolor="#6ae53910"] ;
358 -> 359 ;
360 [label=<OverallCond &le; 2.5<br/>gini = 0.833<br/>samples = 6<br/>value = [0, 0, 0, 1, 1, 0, 1, 1, 0, 0, 0, 1, 0, 1, 0<br/>0, 0, 0, 0, 0, 0, 0, 0]<br/>class = 75000-100000>, fillcolor="#c5e53900"] ;
359 -> 360 ;
361 [label=<gini = 0.0<br/>samples = 1<br/>value = [0, 0, 0, 1, 0, 0, 0, 0, 0, 0, 0, 0, 0, 0, 0<br/>0, 0, 0, 0, 0, 0, 0, 0]<br/>class = 75000-100000>, fillcolor="#c5e539ff"] ;
360 -> 361 ;
362 [label=<OverallCond &le; 3.5<br/>gini = 0.8<br/>samples = 5<br/>value = [0, 0, 0, 0, 1, 0, 1, 1, 0, 0, 0, 1, 0, 1, 0<br/>0, 0, 0, 0, 0, 0, 0, 0]<br/>class = 100000-125000>, fillcolor="#98e53900"] ;
360 -> 362 ;
363 [label=<gini = 0.0<br/>samples = 1<br/>value = [0, 0, 0, 0, 1, 0, 0, 0, 0, 0, 0, 0, 0, 0, 0<br/>0, 0, 0, 0, 0, 0, 0, 0]<br/>class = 100000-125000>, fillcolor="#98e539ff"] ;
362 -> 363 ;
364 [label=<Neighborhood &le; 4.5<br/>gini = 0.75<br/>samples = 4<br/>value = [0, 0, 0, 0, 0, 0, 1, 1, 0, 0, 0, 1, 0, 1, 0<br/>0, 0, 0, 0, 0, 0, 0, 0]<br/>class = 150000-175000>, fillcolor="#3fe53900"] ;
362 -> 364 ;
365 [label=<gini = 0.0<br/>samples = 1<br/>value = [0, 0, 0, 0, 0, 0, 0, 1, 0, 0, 0, 0, 0, 0, 0<br/>0, 0, 0, 0, 0, 0, 0, 0]<br/>class = 175000-200000>, fillcolor="#39e561ff"] ;
364 -> 365 ;
366 [label=<LotFrontage &le; 43.0<br/>gini = 0.667<br/>samples = 3<br/>value = [0, 0, 0, 0, 0, 0, 1, 0, 0, 0, 0, 1, 0, 1, 0<br/>0, 0, 0, 0, 0, 0, 0, 0]<br/>class = 150000-175000>, fillcolor="#3fe53900"] ;
364 -> 366 ;
367 [label=<gini = 0.0<br/>samples = 1<br/>value = [0, 0, 0, 0, 0, 0, 0, 0, 0, 0, 0, 1, 0, 0, 0<br/>0, 0, 0, 0, 0, 0, 0, 0]<br/>class = 275000-300000>, fillcolor="#39b4e5ff"] ;
366 -> 367 ;
368 [label=<OverallQual &le; 6.0<br/>gini = 0.5<br/>samples = 2<br/>value = [0, 0, 0, 0, 0, 0, 1, 0, 0, 0, 0, 0, 0, 1, 0<br/>0, 0, 0, 0, 0, 0, 0, 0]<br/>class = 150000-175000>, fillcolor="#3fe53900"] ;
366 -> 368 ;
369 [label=<gini = 0.0<br/>samples = 1<br/>value = [0, 0, 0, 0, 0, 0, 1, 0, 0, 0, 0, 0, 0, 0, 0<br/>0, 0, 0, 0, 0, 0, 0, 0]<br/>class = 150000-175000>, fillcolor="#3fe539ff"] ;
368 -> 369 ;
370 [label=<gini = 0.0<br/>samples = 1<br/>value = [0, 0, 0, 0, 0, 0, 0, 0, 0, 0, 0, 0, 0, 1, 0<br/>0, 0, 0, 0, 0, 0, 0, 0]<br/>class = 325000-350000>, fillcolor="#395be5ff"] ;
368 -> 370 ;
371 [label=<MSSubClass &le; 5.0<br/>gini = 0.495<br/>samples = 20<br/>value = [0, 0, 0, 0, 9, 11, 0, 0, 0, 0, 0, 0, 0, 0<br/>0, 0, 0, 0, 0, 0, 0, 0, 0]<br/>class = 125000-150000>, fillcolor="#6ae5392e"] ;
359 -> 371 ;
372 [label=<YearBuilt &le; 57.5<br/>gini = 0.498<br/>samples = 17<br/>value = [0, 0, 0, 0, 9, 8, 0, 0, 0, 0, 0, 0, 0, 0, 0<br/>0, 0, 0, 0, 0, 0, 0, 0]<br/>class = 100000-125000>, fillcolor="#98e5391c"] ;
371 -> 372 ;
373 [label=<LotArea &le; 810.0<br/>gini = 0.375<br/>samples = 8<br/>value = [0, 0, 0, 0, 6, 2, 0, 0, 0, 0, 0, 0, 0, 0, 0<br/>0, 0, 0, 0, 0, 0, 0, 0]<br/>class = 100000-125000>, fillcolor="#98e539aa"] ;
372 -> 373 ;
374 [label=<LotFrontage &le; 50.5<br/>gini = 0.245<br/>samples = 7<br/>value = [0, 0, 0, 0, 6, 1, 0, 0, 0, 0, 0, 0, 0, 0, 0<br/>0, 0, 0, 0, 0, 0, 0, 0]<br/>class = 100000-125000>, fillcolor="#98e539d4"] ;
373 -> 374 ;
375 [label=<gini = 0.0<br/>samples = 5<br/>value = [0, 0, 0, 0, 5, 0, 0, 0, 0, 0, 0, 0, 0, 0, 0<br/>0, 0, 0, 0, 0, 0, 0, 0]<br/>class = 100000-125000>, fillcolor="#98e539ff"] ;
374 -> 375 ;
376 [label=<OverallCond &le; 2.5<br/>gini = 0.5<br/>samples = 2<br/>value = [0, 0, 0, 0, 1, 1, 0, 0, 0, 0, 0, 0, 0, 0, 0<br/>0, 0, 0, 0, 0, 0, 0, 0]<br/>class = 100000-125000>, fillcolor="#98e53900"] ;
374 -> 376 ;
377 [label=<gini = 0.0<br/>samples = 1<br/>value = [0, 0, 0, 0, 1, 0, 0, 0, 0, 0, 0, 0, 0, 0, 0<br/>0, 0, 0, 0, 0, 0, 0, 0]<br/>class = 100000-125000>, fillcolor="#98e539ff"] ;
376 -> 377 ;
378 [label=<gini = 0.0<br/>samples = 1<br/>value = [0, 0, 0, 0, 0, 1, 0, 0, 0, 0, 0, 0, 0, 0, 0<br/>0, 0, 0, 0, 0, 0, 0, 0]<br/>class = 125000-150000>, fillcolor="#6ae539ff"] ;
376 -> 378 ;
379 [label=<gini = 0.0<br/>samples = 1<br/>value = [0, 0, 0, 0, 0, 1, 0, 0, 0, 0, 0, 0, 0, 0, 0<br/>0, 0, 0, 0, 0, 0, 0, 0]<br/>class = 125000-150000>, fillcolor="#6ae539ff"] ;
373 -> 379 ;
380 [label=<YearBuilt &le; 59.5<br/>gini = 0.444<br/>samples = 9<br/>value = [0, 0, 0, 0, 3, 6, 0, 0, 0, 0, 0, 0, 0, 0, 0<br/>0, 0, 0, 0, 0, 0, 0, 0]<br/>class = 125000-150000>, fillcolor="#6ae5397f"] ;
372 -> 380 ;
381 [label=<gini = 0.0<br/>samples = 5<br/>value = [0, 0, 0, 0, 0, 5, 0, 0, 0, 0, 0, 0, 0, 0, 0<br/>0, 0, 0, 0, 0, 0, 0, 0]<br/>class = 125000-150000>, fillcolor="#6ae539ff"] ;
380 -> 381 ;
382 [label=<LotArea &le; 408.0<br/>gini = 0.375<br/>samples = 4<br/>value = [0, 0, 0, 0, 3, 1, 0, 0, 0, 0, 0, 0, 0, 0, 0<br/>0, 0, 0, 0, 0, 0, 0, 0]<br/>class = 100000-125000>, fillcolor="#98e539aa"] ;
380 -> 382 ;
383 [label=<gini = 0.0<br/>samples = 1<br/>value = [0, 0, 0, 0, 0, 1, 0, 0, 0, 0, 0, 0, 0, 0, 0<br/>0, 0, 0, 0, 0, 0, 0, 0]<br/>class = 125000-150000>, fillcolor="#6ae539ff"] ;
382 -> 383 ;
384 [label=<gini = 0.0<br/>samples = 3<br/>value = [0, 0, 0, 0, 3, 0, 0, 0, 0, 0, 0, 0, 0, 0, 0<br/>0, 0, 0, 0, 0, 0, 0, 0]<br/>class = 100000-125000>, fillcolor="#98e539ff"] ;
382 -> 384 ;
385 [label=<gini = 0.0<br/>samples = 3<br/>value = [0, 0, 0, 0, 0, 3, 0, 0, 0, 0, 0, 0, 0, 0, 0<br/>0, 0, 0, 0, 0, 0, 0, 0]<br/>class = 125000-150000>, fillcolor="#6ae539ff"] ;
371 -> 385 ;
386 [label=<BldgType &le; 1.0<br/>gini = 0.607<br/>samples = 41<br/>value = [0, 0, 0, 0, 2, 23, 11, 2, 1, 0, 1, 1, 0, 0<br/>0, 0, 0, 0, 0, 0, 0, 0, 0]<br/>class = 125000-150000>, fillcolor="#6ae53966"] ;
358 -> 386 ;
387 [label=<MSSubClass &le; 6.5<br/>gini = 0.568<br/>samples = 39<br/>value = [0, 0, 0, 0, 0, 23, 11, 2, 1, 0, 1, 1, 0, 0<br/>0, 0, 0, 0, 0, 0, 0, 0, 0]<br/>class = 125000-150000>, fillcolor="#6ae5396d"] ;
386 -> 387 ;
388 [label=<OverallQual &le; 6.5<br/>gini = 0.625<br/>samples = 32<br/>value = [0, 0, 0, 0, 0, 16, 11, 2, 1, 0, 1, 1, 0, 0<br/>0, 0, 0, 0, 0, 0, 0, 0, 0]<br/>class = 125000-150000>, fillcolor="#6ae5393d"] ;
387 -> 388 ;
389 [label=<LotArea &le; 602.0<br/>gini = 0.576<br/>samples = 30<br/>value = [0, 0, 0, 0, 0, 16, 11, 2, 1, 0, 0, 0, 0, 0<br/>0, 0, 0, 0, 0, 0, 0, 0, 0]<br/>class = 125000-150000>, fillcolor="#6ae53943"] ;
388 -> 389 ;
390 [label=<YearBuilt &le; 72.0<br/>gini = 0.463<br/>samples = 22<br/>value = [0, 0, 0, 0, 0, 14, 8, 0, 0, 0, 0, 0, 0, 0<br/>0, 0, 0, 0, 0, 0, 0, 0, 0]<br/>class = 125000-150000>, fillcolor="#6ae5396d"] ;
389 -> 390 ;
391 [label=<OverallCond &le; 3.5<br/>gini = 0.298<br/>samples = 11<br/>value = [0, 0, 0, 0, 0, 9, 2, 0, 0, 0, 0, 0, 0, 0, 0<br/>0, 0, 0, 0, 0, 0, 0, 0]<br/>class = 125000-150000>, fillcolor="#6ae539c6"] ;
390 -> 391 ;
392 [label=<LotFrontage &le; 61.0<br/>gini = 0.5<br/>samples = 2<br/>value = [0, 0, 0, 0, 0, 1, 1, 0, 0, 0, 0, 0, 0, 0, 0<br/>0, 0, 0, 0, 0, 0, 0, 0]<br/>class = 125000-150000>, fillcolor="#6ae53900"] ;
391 -> 392 ;
393 [label=<gini = 0.0<br/>samples = 1<br/>value = [0, 0, 0, 0, 0, 1, 0, 0, 0, 0, 0, 0, 0, 0, 0<br/>0, 0, 0, 0, 0, 0, 0, 0]<br/>class = 125000-150000>, fillcolor="#6ae539ff"] ;
392 -> 393 ;
394 [label=<gini = 0.0<br/>samples = 1<br/>value = [0, 0, 0, 0, 0, 0, 1, 0, 0, 0, 0, 0, 0, 0, 0<br/>0, 0, 0, 0, 0, 0, 0, 0]<br/>class = 150000-175000>, fillcolor="#3fe539ff"] ;
392 -> 394 ;
395 [label=<OverallCond &le; 5.5<br/>gini = 0.198<br/>samples = 9<br/>value = [0, 0, 0, 0, 0, 8, 1, 0, 0, 0, 0, 0, 0, 0, 0<br/>0, 0, 0, 0, 0, 0, 0, 0]<br/>class = 125000-150000>, fillcolor="#6ae539df"] ;
391 -> 395 ;
396 [label=<gini = 0.0<br/>samples = 7<br/>value = [0, 0, 0, 0, 0, 7, 0, 0, 0, 0, 0, 0, 0, 0, 0<br/>0, 0, 0, 0, 0, 0, 0, 0]<br/>class = 125000-150000>, fillcolor="#6ae539ff"] ;
395 -> 396 ;
397 [label=<LotArea &le; 417.5<br/>gini = 0.5<br/>samples = 2<br/>value = [0, 0, 0, 0, 0, 1, 1, 0, 0, 0, 0, 0, 0, 0, 0<br/>0, 0, 0, 0, 0, 0, 0, 0]<br/>class = 125000-150000>, fillcolor="#6ae53900"] ;
395 -> 397 ;
398 [label=<gini = 0.0<br/>samples = 1<br/>value = [0, 0, 0, 0, 0, 1, 0, 0, 0, 0, 0, 0, 0, 0, 0<br/>0, 0, 0, 0, 0, 0, 0, 0]<br/>class = 125000-150000>, fillcolor="#6ae539ff"] ;
397 -> 398 ;
399 [label=<gini = 0.0<br/>samples = 1<br/>value = [0, 0, 0, 0, 0, 0, 1, 0, 0, 0, 0, 0, 0, 0, 0<br/>0, 0, 0, 0, 0, 0, 0, 0]<br/>class = 150000-175000>, fillcolor="#3fe539ff"] ;
397 -> 399 ;
400 [label=<LotArea &le; 550.0<br/>gini = 0.496<br/>samples = 11<br/>value = [0, 0, 0, 0, 0, 5, 6, 0, 0, 0, 0, 0, 0, 0, 0<br/>0, 0, 0, 0, 0, 0, 0, 0]<br/>class = 150000-175000>, fillcolor="#3fe5392a"] ;
390 -> 400 ;
401 [label=<LotArea &le; 372.0<br/>gini = 0.278<br/>samples = 6<br/>value = [0, 0, 0, 0, 0, 1, 5, 0, 0, 0, 0, 0, 0, 0, 0<br/>0, 0, 0, 0, 0, 0, 0, 0]<br/>class = 150000-175000>, fillcolor="#3fe539cc"] ;
400 -> 401 ;
402 [label=<gini = 0.0<br/>samples = 1<br/>value = [0, 0, 0, 0, 0, 1, 0, 0, 0, 0, 0, 0, 0, 0, 0<br/>0, 0, 0, 0, 0, 0, 0, 0]<br/>class = 125000-150000>, fillcolor="#6ae539ff"] ;
401 -> 402 ;
403 [label=<gini = 0.0<br/>samples = 5<br/>value = [0, 0, 0, 0, 0, 0, 5, 0, 0, 0, 0, 0, 0, 0, 0<br/>0, 0, 0, 0, 0, 0, 0, 0]<br/>class = 150000-175000>, fillcolor="#3fe539ff"] ;
401 -> 403 ;
404 [label=<OverallCond &le; 3.5<br/>gini = 0.32<br/>samples = 5<br/>value = [0, 0, 0, 0, 0, 4, 1, 0, 0, 0, 0, 0, 0, 0, 0<br/>0, 0, 0, 0, 0, 0, 0, 0]<br/>class = 125000-150000>, fillcolor="#6ae539bf"] ;
400 -> 404 ;
405 [label=<gini = 0.0<br/>samples = 4<br/>value = [0, 0, 0, 0, 0, 4, 0, 0, 0, 0, 0, 0, 0, 0, 0<br/>0, 0, 0, 0, 0, 0, 0, 0]<br/>class = 125000-150000>, fillcolor="#6ae539ff"] ;
404 -> 405 ;
406 [label=<gini = 0.0<br/>samples = 1<br/>value = [0, 0, 0, 0, 0, 0, 1, 0, 0, 0, 0, 0, 0, 0, 0<br/>0, 0, 0, 0, 0, 0, 0, 0]<br/>class = 150000-175000>, fillcolor="#3fe539ff"] ;
404 -> 406 ;
407 [label=<LotArea &le; 683.0<br/>gini = 0.719<br/>samples = 8<br/>value = [0, 0, 0, 0, 0, 2, 3, 2, 1, 0, 0, 0, 0, 0, 0<br/>0, 0, 0, 0, 0, 0, 0, 0]<br/>class = 150000-175000>, fillcolor="#3fe5392a"] ;
389 -> 407 ;
408 [label=<LotFrontage &le; 58.5<br/>gini = 0.444<br/>samples = 3<br/>value = [0, 0, 0, 0, 0, 0, 0, 2, 1, 0, 0, 0, 0, 0, 0<br/>0, 0, 0, 0, 0, 0, 0, 0]<br/>class = 175000-200000>, fillcolor="#39e5617f"] ;
407 -> 408 ;
409 [label=<gini = 0.0<br/>samples = 2<br/>value = [0, 0, 0, 0, 0, 0, 0, 2, 0, 0, 0, 0, 0, 0, 0<br/>0, 0, 0, 0, 0, 0, 0, 0]<br/>class = 175000-200000>, fillcolor="#39e561ff"] ;
408 -> 409 ;
410 [label=<gini = 0.0<br/>samples = 1<br/>value = [0, 0, 0, 0, 0, 0, 0, 0, 1, 0, 0, 0, 0, 0, 0<br/>0, 0, 0, 0, 0, 0, 0, 0]<br/>class = 200000-225000>, fillcolor="#39e58fff"] ;
408 -> 410 ;
411 [label=<LotFrontage &le; 57.0<br/>gini = 0.48<br/>samples = 5<br/>value = [0, 0, 0, 0, 0, 2, 3, 0, 0, 0, 0, 0, 0, 0, 0<br/>0, 0, 0, 0, 0, 0, 0, 0]<br/>class = 150000-175000>, fillcolor="#3fe53955"] ;
407 -> 411 ;
412 [label=<YearBuilt &le; 79.5<br/>gini = 0.444<br/>samples = 3<br/>value = [0, 0, 0, 0, 0, 2, 1, 0, 0, 0, 0, 0, 0, 0, 0<br/>0, 0, 0, 0, 0, 0, 0, 0]<br/>class = 125000-150000>, fillcolor="#6ae5397f"] ;
411 -> 412 ;
413 [label=<gini = 0.0<br/>samples = 2<br/>value = [0, 0, 0, 0, 0, 2, 0, 0, 0, 0, 0, 0, 0, 0, 0<br/>0, 0, 0, 0, 0, 0, 0, 0]<br/>class = 125000-150000>, fillcolor="#6ae539ff"] ;
412 -> 413 ;
414 [label=<gini = 0.0<br/>samples = 1<br/>value = [0, 0, 0, 0, 0, 0, 1, 0, 0, 0, 0, 0, 0, 0, 0<br/>0, 0, 0, 0, 0, 0, 0, 0]<br/>class = 150000-175000>, fillcolor="#3fe539ff"] ;
412 -> 414 ;
415 [label=<gini = 0.0<br/>samples = 2<br/>value = [0, 0, 0, 0, 0, 0, 2, 0, 0, 0, 0, 0, 0, 0, 0<br/>0, 0, 0, 0, 0, 0, 0, 0]<br/>class = 150000-175000>, fillcolor="#3fe539ff"] ;
411 -> 415 ;
416 [label=<Neighborhood &le; 17.0<br/>gini = 0.5<br/>samples = 2<br/>value = [0, 0, 0, 0, 0, 0, 0, 0, 0, 0, 1, 1, 0, 0, 0<br/>0, 0, 0, 0, 0, 0, 0, 0]<br/>class = 250000-275000>, fillcolor="#39e2e500"] ;
388 -> 416 ;
417 [label=<gini = 0.0<br/>samples = 1<br/>value = [0, 0, 0, 0, 0, 0, 0, 0, 0, 0, 1, 0, 0, 0, 0<br/>0, 0, 0, 0, 0, 0, 0, 0]<br/>class = 250000-275000>, fillcolor="#39e2e5ff"] ;
416 -> 417 ;
418 [label=<gini = 0.0<br/>samples = 1<br/>value = [0, 0, 0, 0, 0, 0, 0, 0, 0, 0, 0, 1, 0, 0, 0<br/>0, 0, 0, 0, 0, 0, 0, 0]<br/>class = 275000-300000>, fillcolor="#39b4e5ff"] ;
416 -> 418 ;
419 [label=<gini = 0.0<br/>samples = 7<br/>value = [0, 0, 0, 0, 0, 7, 0, 0, 0, 0, 0, 0, 0, 0, 0<br/>0, 0, 0, 0, 0, 0, 0, 0]<br/>class = 125000-150000>, fillcolor="#6ae539ff"] ;
387 -> 419 ;
420 [label=<gini = 0.0<br/>samples = 2<br/>value = [0, 0, 0, 0, 2, 0, 0, 0, 0, 0, 0, 0, 0, 0, 0<br/>0, 0, 0, 0, 0, 0, 0, 0]<br/>class = 100000-125000>, fillcolor="#98e539ff"] ;
386 -> 420 ;
421 [label=<YearBuilt &le; 57.5<br/>gini = 0.801<br/>samples = 27<br/>value = [0, 0, 1, 1, 0, 2, 3, 4, 10, 2, 1, 0, 3, 0<br/>0, 0, 0, 0, 0, 0, 0, 0, 0]<br/>class = 200000-225000>, fillcolor="#39e58f43"] ;
337 -> 421 ;
422 [label=<ExterCond &le; 3.0<br/>gini = 0.58<br/>samples = 13<br/>value = [0, 0, 1, 0, 0, 2, 0, 1, 8, 0, 0, 0, 1, 0, 0<br/>0, 0, 0, 0, 0, 0, 0, 0]<br/>class = 200000-225000>, fillcolor="#39e58f8b"] ;
421 -> 422 ;
423 [label=<MSSubClass &le; 6.5<br/>gini = 0.625<br/>samples = 4<br/>value = [0, 0, 0, 0, 0, 2, 0, 0, 1, 0, 0, 0, 1, 0, 0<br/>0, 0, 0, 0, 0, 0, 0, 0]<br/>class = 125000-150000>, fillcolor="#6ae53955"] ;
422 -> 423 ;
424 [label=<gini = 0.0<br/>samples = 2<br/>value = [0, 0, 0, 0, 0, 2, 0, 0, 0, 0, 0, 0, 0, 0, 0<br/>0, 0, 0, 0, 0, 0, 0, 0]<br/>class = 125000-150000>, fillcolor="#6ae539ff"] ;
423 -> 424 ;
425 [label=<LotArea &le; 963.0<br/>gini = 0.5<br/>samples = 2<br/>value = [0, 0, 0, 0, 0, 0, 0, 0, 1, 0, 0, 0, 1, 0, 0<br/>0, 0, 0, 0, 0, 0, 0, 0]<br/>class = 200000-225000>, fillcolor="#39e58f00"] ;
423 -> 425 ;
426 [label=<gini = 0.0<br/>samples = 1<br/>value = [0, 0, 0, 0, 0, 0, 0, 0, 0, 0, 0, 0, 1, 0, 0<br/>0, 0, 0, 0, 0, 0, 0, 0]<br/>class = 300000-325000>, fillcolor="#3989e5ff"] ;
425 -> 426 ;
427 [label=<gini = 0.0<br/>samples = 1<br/>value = [0, 0, 0, 0, 0, 0, 0, 0, 1, 0, 0, 0, 0, 0, 0<br/>0, 0, 0, 0, 0, 0, 0, 0]<br/>class = 200000-225000>, fillcolor="#39e58fff"] ;
425 -> 427 ;
428 [label=<Neighborhood &le; 9.5<br/>gini = 0.37<br/>samples = 9<br/>value = [0, 0, 1, 0, 0, 0, 0, 1, 7, 0, 0, 0, 0, 0, 0<br/>0, 0, 0, 0, 0, 0, 0, 0]<br/>class = 200000-225000>, fillcolor="#39e58fbf"] ;
422 -> 428 ;
429 [label=<LotArea &le; 888.5<br/>gini = 0.219<br/>samples = 8<br/>value = [0, 0, 0, 0, 0, 0, 0, 1, 7, 0, 0, 0, 0, 0, 0<br/>0, 0, 0, 0, 0, 0, 0, 0]<br/>class = 200000-225000>, fillcolor="#39e58fdb"] ;
428 -> 429 ;
430 [label=<LotArea &le; 848.0<br/>gini = 0.5<br/>samples = 2<br/>value = [0, 0, 0, 0, 0, 0, 0, 1, 1, 0, 0, 0, 0, 0, 0<br/>0, 0, 0, 0, 0, 0, 0, 0]<br/>class = 175000-200000>, fillcolor="#39e56100"] ;
429 -> 430 ;
431 [label=<gini = 0.0<br/>samples = 1<br/>value = [0, 0, 0, 0, 0, 0, 0, 0, 1, 0, 0, 0, 0, 0, 0<br/>0, 0, 0, 0, 0, 0, 0, 0]<br/>class = 200000-225000>, fillcolor="#39e58fff"] ;
430 -> 431 ;
432 [label=<gini = 0.0<br/>samples = 1<br/>value = [0, 0, 0, 0, 0, 0, 0, 1, 0, 0, 0, 0, 0, 0, 0<br/>0, 0, 0, 0, 0, 0, 0, 0]<br/>class = 175000-200000>, fillcolor="#39e561ff"] ;
430 -> 432 ;
433 [label=<gini = 0.0<br/>samples = 6<br/>value = [0, 0, 0, 0, 0, 0, 0, 0, 6, 0, 0, 0, 0, 0, 0<br/>0, 0, 0, 0, 0, 0, 0, 0]<br/>class = 200000-225000>, fillcolor="#39e58fff"] ;
429 -> 433 ;
434 [label=<gini = 0.0<br/>samples = 1<br/>value = [0, 0, 1, 0, 0, 0, 0, 0, 0, 0, 0, 0, 0, 0, 0<br/>0, 0, 0, 0, 0, 0, 0, 0]<br/>class = 50000-75000>, fillcolor="#e5da39ff"] ;
428 -> 434 ;
435 [label=<OverallCond &le; 4.5<br/>gini = 0.837<br/>samples = 14<br/>value = [0, 0, 0, 1, 0, 0, 3, 3, 2, 2, 1, 0, 2, 0, 0<br/>0, 0, 0, 0, 0, 0, 0, 0]<br/>class = 150000-175000>, fillcolor="#3fe53900"] ;
421 -> 435 ;
436 [label=<LotFrontage &le; 68.5<br/>gini = 0.76<br/>samples = 10<br/>value = [0, 0, 0, 1, 0, 0, 3, 3, 2, 1, 0, 0, 0, 0, 0<br/>0, 0, 0, 0, 0, 0, 0, 0]<br/>class = 150000-175000>, fillcolor="#3fe53900"] ;
435 -> 436 ;
437 [label=<LotArea &le; 890.0<br/>gini = 0.64<br/>samples = 5<br/>value = [0, 0, 0, 0, 0, 0, 0, 2, 2, 1, 0, 0, 0, 0, 0<br/>0, 0, 0, 0, 0, 0, 0, 0]<br/>class = 175000-200000>, fillcolor="#39e56100"] ;
436 -> 437 ;
438 [label=<gini = 0.0<br/>samples = 2<br/>value = [0, 0, 0, 0, 0, 0, 0, 2, 0, 0, 0, 0, 0, 0, 0<br/>0, 0, 0, 0, 0, 0, 0, 0]<br/>class = 175000-200000>, fillcolor="#39e561ff"] ;
437 -> 438 ;
439 [label=<OverallCond &le; 3.5<br/>gini = 0.444<br/>samples = 3<br/>value = [0, 0, 0, 0, 0, 0, 0, 0, 2, 1, 0, 0, 0, 0, 0<br/>0, 0, 0, 0, 0, 0, 0, 0]<br/>class = 200000-225000>, fillcolor="#39e58f7f"] ;
437 -> 439 ;
440 [label=<gini = 0.0<br/>samples = 1<br/>value = [0, 0, 0, 0, 0, 0, 0, 0, 0, 1, 0, 0, 0, 0, 0<br/>0, 0, 0, 0, 0, 0, 0, 0]<br/>class = 225000-250000>, fillcolor="#39e5baff"] ;
439 -> 440 ;
441 [label=<gini = 0.0<br/>samples = 2<br/>value = [0, 0, 0, 0, 0, 0, 0, 0, 2, 0, 0, 0, 0, 0, 0<br/>0, 0, 0, 0, 0, 0, 0, 0]<br/>class = 200000-225000>, fillcolor="#39e58fff"] ;
439 -> 441 ;
442 [label=<LotFrontage &le; 97.5<br/>gini = 0.56<br/>samples = 5<br/>value = [0, 0, 0, 1, 0, 0, 3, 1, 0, 0, 0, 0, 0, 0, 0<br/>0, 0, 0, 0, 0, 0, 0, 0]<br/>class = 150000-175000>, fillcolor="#3fe5397f"] ;
436 -> 442 ;
443 [label=<OverallCond &le; 2.0<br/>gini = 0.375<br/>samples = 4<br/>value = [0, 0, 0, 1, 0, 0, 3, 0, 0, 0, 0, 0, 0, 0, 0<br/>0, 0, 0, 0, 0, 0, 0, 0]<br/>class = 150000-175000>, fillcolor="#3fe539aa"] ;
442 -> 443 ;
444 [label=<gini = 0.0<br/>samples = 1<br/>value = [0, 0, 0, 1, 0, 0, 0, 0, 0, 0, 0, 0, 0, 0, 0<br/>0, 0, 0, 0, 0, 0, 0, 0]<br/>class = 75000-100000>, fillcolor="#c5e539ff"] ;
443 -> 444 ;
445 [label=<gini = 0.0<br/>samples = 3<br/>value = [0, 0, 0, 0, 0, 0, 3, 0, 0, 0, 0, 0, 0, 0, 0<br/>0, 0, 0, 0, 0, 0, 0, 0]<br/>class = 150000-175000>, fillcolor="#3fe539ff"] ;
443 -> 445 ;
446 [label=<gini = 0.0<br/>samples = 1<br/>value = [0, 0, 0, 0, 0, 0, 0, 1, 0, 0, 0, 0, 0, 0, 0<br/>0, 0, 0, 0, 0, 0, 0, 0]<br/>class = 175000-200000>, fillcolor="#39e561ff"] ;
442 -> 446 ;
447 [label=<YearBuilt &le; 59.0<br/>gini = 0.625<br/>samples = 4<br/>value = [0, 0, 0, 0, 0, 0, 0, 0, 0, 1, 1, 0, 2, 0, 0<br/>0, 0, 0, 0, 0, 0, 0, 0]<br/>class = 300000-325000>, fillcolor="#3989e555"] ;
435 -> 447 ;
448 [label=<gini = 0.0<br/>samples = 1<br/>value = [0, 0, 0, 0, 0, 0, 0, 0, 0, 1, 0, 0, 0, 0, 0<br/>0, 0, 0, 0, 0, 0, 0, 0]<br/>class = 225000-250000>, fillcolor="#39e5baff"] ;
447 -> 448 ;
449 [label=<LotArea &le; 935.0<br/>gini = 0.444<br/>samples = 3<br/>value = [0, 0, 0, 0, 0, 0, 0, 0, 0, 0, 1, 0, 2, 0, 0<br/>0, 0, 0, 0, 0, 0, 0, 0]<br/>class = 300000-325000>, fillcolor="#3989e57f"] ;
447 -> 449 ;
450 [label=<gini = 0.0<br/>samples = 1<br/>value = [0, 0, 0, 0, 0, 0, 0, 0, 0, 0, 0, 0, 1, 0, 0<br/>0, 0, 0, 0, 0, 0, 0, 0]<br/>class = 300000-325000>, fillcolor="#3989e5ff"] ;
449 -> 450 ;
451 [label=<ExterCond &le; 3.0<br/>gini = 0.5<br/>samples = 2<br/>value = [0, 0, 0, 0, 0, 0, 0, 0, 0, 0, 1, 0, 1, 0, 0<br/>0, 0, 0, 0, 0, 0, 0, 0]<br/>class = 250000-275000>, fillcolor="#39e2e500"] ;
449 -> 451 ;
452 [label=<gini = 0.0<br/>samples = 1<br/>value = [0, 0, 0, 0, 0, 0, 0, 0, 0, 0, 0, 0, 1, 0, 0<br/>0, 0, 0, 0, 0, 0, 0, 0]<br/>class = 300000-325000>, fillcolor="#3989e5ff"] ;
451 -> 452 ;
453 [label=<gini = 0.0<br/>samples = 1<br/>value = [0, 0, 0, 0, 0, 0, 0, 0, 0, 0, 1, 0, 0, 0, 0<br/>0, 0, 0, 0, 0, 0, 0, 0]<br/>class = 250000-275000>, fillcolor="#39e2e5ff"] ;
451 -> 453 ;
454 [label=<OverallQual &le; 6.5<br/>gini = 0.884<br/>samples = 359<br/>value = [0, 0, 0, 2, 23, 39, 80, 45, 44, 37, 20, 20, 13<br/>10, 7, 4, 4, 2, 1, 1, 2, 1, 4]<br/>class = 150000-175000>, fillcolor="#3fe5391c"] ;
0 -> 454 [labeldistance=2.5, labelangle=-45, headlabel="False"] ;
455 [label=<LotArea &le; 91.0<br/>gini = 0.806<br/>samples = 219<br/>value = [0, 0, 0, 2, 22, 35, 73, 39, 22, 14, 4, 5, 2<br/>0, 1, 0, 0, 0, 0, 0, 0, 0, 0]<br/>class = 150000-175000>, fillcolor="#3fe53930"] ;
454 -> 455 ;
456 [label=<MSZoning &le; 3.5<br/>gini = 0.672<br/>samples = 31<br/>value = [0, 0, 0, 0, 11, 12, 7, 0, 1, 0, 0, 0, 0, 0<br/>0, 0, 0, 0, 0, 0, 0, 0, 0]<br/>class = 125000-150000>, fillcolor="#6ae5390d"] ;
455 -> 456 ;
457 [label=<LotFrontage &le; 5.5<br/>gini = 0.65<br/>samples = 20<br/>value = [0, 0, 0, 0, 3, 9, 7, 0, 1, 0, 0, 0, 0, 0, 0<br/>0, 0, 0, 0, 0, 0, 0, 0]<br/>class = 125000-150000>, fillcolor="#6ae53927"] ;
456 -> 457 ;
458 [label=<OverallQual &le; 5.5<br/>gini = 0.653<br/>samples = 7<br/>value = [0, 0, 0, 0, 3, 2, 2, 0, 0, 0, 0, 0, 0, 0, 0<br/>0, 0, 0, 0, 0, 0, 0, 0]<br/>class = 100000-125000>, fillcolor="#98e53933"] ;
457 -> 458 ;
459 [label=<gini = 0.0<br/>samples = 2<br/>value = [0, 0, 0, 0, 0, 0, 2, 0, 0, 0, 0, 0, 0, 0, 0<br/>0, 0, 0, 0, 0, 0, 0, 0]<br/>class = 150000-175000>, fillcolor="#3fe539ff"] ;
458 -> 459 ;
460 [label=<LotArea &le; 45.0<br/>gini = 0.48<br/>samples = 5<br/>value = [0, 0, 0, 0, 3, 2, 0, 0, 0, 0, 0, 0, 0, 0, 0<br/>0, 0, 0, 0, 0, 0, 0, 0]<br/>class = 100000-125000>, fillcolor="#98e53955"] ;
458 -> 460 ;
461 [label=<LotFrontage &le; 1.5<br/>gini = 0.444<br/>samples = 3<br/>value = [0, 0, 0, 0, 1, 2, 0, 0, 0, 0, 0, 0, 0, 0, 0<br/>0, 0, 0, 0, 0, 0, 0, 0]<br/>class = 125000-150000>, fillcolor="#6ae5397f"] ;
460 -> 461 ;
462 [label=<gini = 0.0<br/>samples = 1<br/>value = [0, 0, 0, 0, 1, 0, 0, 0, 0, 0, 0, 0, 0, 0, 0<br/>0, 0, 0, 0, 0, 0, 0, 0]<br/>class = 100000-125000>, fillcolor="#98e539ff"] ;
461 -> 462 ;
463 [label=<gini = 0.0<br/>samples = 2<br/>value = [0, 0, 0, 0, 0, 2, 0, 0, 0, 0, 0, 0, 0, 0, 0<br/>0, 0, 0, 0, 0, 0, 0, 0]<br/>class = 125000-150000>, fillcolor="#6ae539ff"] ;
461 -> 463 ;
464 [label=<gini = 0.0<br/>samples = 2<br/>value = [0, 0, 0, 0, 2, 0, 0, 0, 0, 0, 0, 0, 0, 0, 0<br/>0, 0, 0, 0, 0, 0, 0, 0]<br/>class = 100000-125000>, fillcolor="#98e539ff"] ;
460 -> 464 ;
465 [label=<YearBuilt &le; 107.5<br/>gini = 0.556<br/>samples = 13<br/>value = [0, 0, 0, 0, 0, 7, 5, 0, 1, 0, 0, 0, 0, 0, 0<br/>0, 0, 0, 0, 0, 0, 0, 0]<br/>class = 125000-150000>, fillcolor="#6ae53940"] ;
457 -> 465 ;
466 [label=<LotFrontage &le; 19.0<br/>gini = 0.58<br/>samples = 10<br/>value = [0, 0, 0, 0, 0, 4, 5, 0, 1, 0, 0, 0, 0, 0, 0<br/>0, 0, 0, 0, 0, 0, 0, 0]<br/>class = 150000-175000>, fillcolor="#3fe5392a"] ;
465 -> 466 ;
467 [label=<LotArea &le; 27.0<br/>gini = 0.5<br/>samples = 8<br/>value = [0, 0, 0, 0, 0, 4, 4, 0, 0, 0, 0, 0, 0, 0, 0<br/>0, 0, 0, 0, 0, 0, 0, 0]<br/>class = 125000-150000>, fillcolor="#6ae53900"] ;
466 -> 467 ;
468 [label=<gini = 0.0<br/>samples = 1<br/>value = [0, 0, 0, 0, 0, 1, 0, 0, 0, 0, 0, 0, 0, 0, 0<br/>0, 0, 0, 0, 0, 0, 0, 0]<br/>class = 125000-150000>, fillcolor="#6ae539ff"] ;
467 -> 468 ;
469 [label=<LotArea &le; 33.0<br/>gini = 0.49<br/>samples = 7<br/>value = [0, 0, 0, 0, 0, 3, 4, 0, 0, 0, 0, 0, 0, 0, 0<br/>0, 0, 0, 0, 0, 0, 0, 0]<br/>class = 150000-175000>, fillcolor="#3fe53940"] ;
467 -> 469 ;
470 [label=<gini = 0.0<br/>samples = 1<br/>value = [0, 0, 0, 0, 0, 0, 1, 0, 0, 0, 0, 0, 0, 0, 0<br/>0, 0, 0, 0, 0, 0, 0, 0]<br/>class = 150000-175000>, fillcolor="#3fe539ff"] ;
469 -> 470 ;
471 [label=<LotArea &le; 38.5<br/>gini = 0.5<br/>samples = 6<br/>value = [0, 0, 0, 0, 0, 3, 3, 0, 0, 0, 0, 0, 0, 0, 0<br/>0, 0, 0, 0, 0, 0, 0, 0]<br/>class = 125000-150000>, fillcolor="#6ae53900"] ;
469 -> 471 ;
472 [label=<gini = 0.0<br/>samples = 1<br/>value = [0, 0, 0, 0, 0, 1, 0, 0, 0, 0, 0, 0, 0, 0, 0<br/>0, 0, 0, 0, 0, 0, 0, 0]<br/>class = 125000-150000>, fillcolor="#6ae539ff"] ;
471 -> 472 ;
473 [label=<MSSubClass &le; 11.5<br/>gini = 0.48<br/>samples = 5<br/>value = [0, 0, 0, 0, 0, 2, 3, 0, 0, 0, 0, 0, 0, 0, 0<br/>0, 0, 0, 0, 0, 0, 0, 0]<br/>class = 150000-175000>, fillcolor="#3fe53955"] ;
471 -> 473 ;
474 [label=<YearBuilt &le; 106.5<br/>gini = 0.375<br/>samples = 4<br/>value = [0, 0, 0, 0, 0, 1, 3, 0, 0, 0, 0, 0, 0, 0, 0<br/>0, 0, 0, 0, 0, 0, 0, 0]<br/>class = 150000-175000>, fillcolor="#3fe539aa"] ;
473 -> 474 ;
475 [label=<gini = 0.444<br/>samples = 3<br/>value = [0, 0, 0, 0, 0, 1, 2, 0, 0, 0, 0, 0, 0, 0, 0<br/>0, 0, 0, 0, 0, 0, 0, 0]<br/>class = 150000-175000>, fillcolor="#3fe5397f"] ;
474 -> 475 ;
476 [label=<gini = 0.0<br/>samples = 1<br/>value = [0, 0, 0, 0, 0, 0, 1, 0, 0, 0, 0, 0, 0, 0, 0<br/>0, 0, 0, 0, 0, 0, 0, 0]<br/>class = 150000-175000>, fillcolor="#3fe539ff"] ;
474 -> 476 ;
477 [label=<gini = 0.0<br/>samples = 1<br/>value = [0, 0, 0, 0, 0, 1, 0, 0, 0, 0, 0, 0, 0, 0, 0<br/>0, 0, 0, 0, 0, 0, 0, 0]<br/>class = 125000-150000>, fillcolor="#6ae539ff"] ;
473 -> 477 ;
478 [label=<LotArea &le; 61.5<br/>gini = 0.5<br/>samples = 2<br/>value = [0, 0, 0, 0, 0, 0, 1, 0, 1, 0, 0, 0, 0, 0, 0<br/>0, 0, 0, 0, 0, 0, 0, 0]<br/>class = 150000-175000>, fillcolor="#3fe53900"] ;
466 -> 478 ;
479 [label=<gini = 0.0<br/>samples = 1<br/>value = [0, 0, 0, 0, 0, 0, 1, 0, 0, 0, 0, 0, 0, 0, 0<br/>0, 0, 0, 0, 0, 0, 0, 0]<br/>class = 150000-175000>, fillcolor="#3fe539ff"] ;
478 -> 479 ;
480 [label=<gini = 0.0<br/>samples = 1<br/>value = [0, 0, 0, 0, 0, 0, 0, 0, 1, 0, 0, 0, 0, 0, 0<br/>0, 0, 0, 0, 0, 0, 0, 0]<br/>class = 200000-225000>, fillcolor="#39e58fff"] ;
478 -> 480 ;
481 [label=<gini = 0.0<br/>samples = 3<br/>value = [0, 0, 0, 0, 0, 3, 0, 0, 0, 0, 0, 0, 0, 0, 0<br/>0, 0, 0, 0, 0, 0, 0, 0]<br/>class = 125000-150000>, fillcolor="#6ae539ff"] ;
465 -> 481 ;
482 [label=<YearBuilt &le; 101.5<br/>gini = 0.397<br/>samples = 11<br/>value = [0, 0, 0, 0, 8, 3, 0, 0, 0, 0, 0, 0, 0, 0, 0<br/>0, 0, 0, 0, 0, 0, 0, 0]<br/>class = 100000-125000>, fillcolor="#98e5399f"] ;
456 -> 482 ;
483 [label=<gini = 0.0<br/>samples = 3<br/>value = [0, 0, 0, 0, 0, 3, 0, 0, 0, 0, 0, 0, 0, 0, 0<br/>0, 0, 0, 0, 0, 0, 0, 0]<br/>class = 125000-150000>, fillcolor="#6ae539ff"] ;
482 -> 483 ;
484 [label=<gini = 0.0<br/>samples = 8<br/>value = [0, 0, 0, 0, 8, 0, 0, 0, 0, 0, 0, 0, 0, 0, 0<br/>0, 0, 0, 0, 0, 0, 0, 0]<br/>class = 100000-125000>, fillcolor="#98e539ff"] ;
482 -> 484 ;
485 [label=<LotFrontage &le; 45.5<br/>gini = 0.796<br/>samples = 188<br/>value = [0, 0, 0, 2, 11, 23, 66, 39, 21, 14, 4, 5, 2<br/>0, 1, 0, 0, 0, 0, 0, 0, 0, 0]<br/>class = 150000-175000>, fillcolor="#3fe5392e"] ;
455 -> 485 ;
486 [label=<OverallQual &le; 5.5<br/>gini = 0.711<br/>samples = 121<br/>value = [0, 0, 0, 1, 8, 16, 56, 25, 12, 2, 0, 0, 1, 0<br/>0, 0, 0, 0, 0, 0, 0, 0, 0]<br/>class = 150000-175000>, fillcolor="#3fe53952"] ;
485 -> 486 ;
487 [label=<Neighborhood &le; 6.0<br/>gini = 0.723<br/>samples = 45<br/>value = [0, 0, 0, 1, 7, 14, 17, 5, 1, 0, 0, 0, 0, 0<br/>0, 0, 0, 0, 0, 0, 0, 0, 0]<br/>class = 150000-175000>, fillcolor="#3fe53919"] ;
486 -> 487 ;
488 [label=<YearBuilt &le; 97.5<br/>gini = 0.691<br/>samples = 9<br/>value = [0, 0, 0, 0, 4, 2, 0, 2, 1, 0, 0, 0, 0, 0, 0<br/>0, 0, 0, 0, 0, 0, 0, 0]<br/>class = 100000-125000>, fillcolor="#98e53949"] ;
487 -> 488 ;
489 [label=<gini = 0.0<br/>samples = 4<br/>value = [0, 0, 0, 0, 4, 0, 0, 0, 0, 0, 0, 0, 0, 0, 0<br/>0, 0, 0, 0, 0, 0, 0, 0]<br/>class = 100000-125000>, fillcolor="#98e539ff"] ;
488 -> 489 ;
490 [label=<LotArea &le; 405.0<br/>gini = 0.64<br/>samples = 5<br/>value = [0, 0, 0, 0, 0, 2, 0, 2, 1, 0, 0, 0, 0, 0, 0<br/>0, 0, 0, 0, 0, 0, 0, 0]<br/>class = 125000-150000>, fillcolor="#6ae53900"] ;
488 -> 490 ;
491 [label=<gini = 0.0<br/>samples = 2<br/>value = [0, 0, 0, 0, 0, 2, 0, 0, 0, 0, 0, 0, 0, 0, 0<br/>0, 0, 0, 0, 0, 0, 0, 0]<br/>class = 125000-150000>, fillcolor="#6ae539ff"] ;
490 -> 491 ;
492 [label=<LotFrontage &le; 38.0<br/>gini = 0.444<br/>samples = 3<br/>value = [0, 0, 0, 0, 0, 0, 0, 2, 1, 0, 0, 0, 0, 0, 0<br/>0, 0, 0, 0, 0, 0, 0, 0]<br/>class = 175000-200000>, fillcolor="#39e5617f"] ;
